{"type":"LSTM","options":{"inputSize":37,"inputRange":37,"hiddenLayers":[20,20],"outputSize":37,"decayRate":0.999,"smoothEps":1e-8,"regc":0.000001,"clipval":5,"maxPredictionLength":100,"dataFormatter":{"indexTable":{"3":29,"6":14,"8":15,"9":28,"j":0,"i":1,"a":2,"f":3,"e":4,"P":5,"o":6,"t":7,"x":8,"n":9,"k":10,"u":11,"l":12,"r":13,"c":16," ":17,"m":18,"d":19,"p":20,"b":21,"y":22,"g":23,"s":24,"h":25,"z":26,"ñ":27,"F":30,"w":31,"v":32,"q":33,"stop-input":34,"start-output":35,"unrecognized":36},"characterTable":{"0":"j","1":"i","2":"a","3":"f","4":"e","5":"P","6":"o","7":"t","8":"x","9":"n","10":"k","11":"u","12":"l","13":"r","14":"6","15":"8","16":"c","17":" ","18":"m","19":"d","20":"p","21":"b","22":"y","23":"g","24":"s","25":"h","26":"z","27":"ñ","28":"9","29":"3","30":"F","31":"w","32":"v","33":"q","34":null,"35":null,"36":null},"values":[{"input":"jiafei","output":"Potaxie"},{"input":"anekakaenekulo","output":"Potaxie"},{"input":"ternura68","output":"Potaxie"},{"input":"ternure68","output":"Potaxie"},{"input":"nicki minaj","output":"Potaxie"},{"input":"alejandra luna","output":"Potaxie"},{"input":"doctora polo","output":"Potaxie"},{"input":"cupcakke","output":"Potaxie"},{"input":"deje el bullying","output":"Potaxie"},{"input":"shakira","output":"Potaxie"},{"input":"rubi","output":"Potaxie"},{"input":"teresa","output":"Potaxie"},{"input":"deborah","output":"Potaxie"},{"input":"luz maria","output":"Potaxie"},{"input":"rosalia","output":"Potaxie"},{"input":"doña leticia","output":"Potaxie"},{"input":"kris jenner","output":"Potaxie"},{"input":"lady gaga","output":"Potaxie"},{"input":"lulu99","output":"Potaxie"},{"input":"aimep3","output":"Potaxie"},{"input":"super idol","output":"Fife"},{"input":"waza","output":"Fife"},{"input":"cristiano ronaldo","output":"Fife"},{"input":"lionel messi","output":"Fife"},{"input":"tom holland","output":"Fife"},{"input":"la roca","output":"Fife"},{"input":"goku","output":"Fife"},{"input":"vegeta","output":"Fife"},{"input":"el bicho","output":"Fife"},{"input":"el pana miguel","output":"Fife"},{"input":"giga chad","output":"Fife"},{"input":"yao cabrera","output":"Fife"},{"input":"pique","output":"Fife"},{"input":"faraon","output":"Fife"},{"input":"aña","output":"Fife"},{"input":"osito peru","output":"Fife"},{"input":"donato","output":"Fife"},{"input":"tilin","output":"Fife"},{"input":"tommy shelby","output":"Fife"},{"input":"feijia","output":"Fife"}],"characters":["j","i","a","f","e","P","o","t","x","n","k","u","l","r","6","8","c"," ","m","d","p","b","y","g","s","h","z","ñ","9","3","F","w","v","q","stop-input","start-output","unrecognized"],"specialIndexes":[34,35,36]}},"trainOpts":{"iterations":200,"errorThresh":0.005,"log":true,"logPeriod":10,"learningRate":0.01,"callbackPeriod":10,"timeout":"Infinity","erroThresh":0.01},"input":{"rows":38,"columns":37,"weights":[1.3250501155853271,-1.3864789009094238,-2.1854054927825928,0.49234142899513245,-0.9432225823402405,-0.5302895307540894,1.3097527027130127,-0.15797950327396393,0.9023868441581726,-0.398544579744339,-0.4276675283908844,0.044564247131347656,-1.1097183227539062,0.5915253758430481,0.5877832174301147,-0.0618564635515213,-0.2852800190448761,0.39681917428970337,0.8559190630912781,-0.44136953353881836,-1.1627116203308105,0.6057600378990173,-0.33636194467544556,-0.26443153619766235,-1.0127954483032227,-0.11642178893089294,1.016036868095398,-0.712057888507843,-0.09058555960655212,0.4158540964126587,1.4964908361434937,0.2495315968990326,-0.4734560251235962,0.8068647384643555,-0.576871395111084,1.072037935256958,0.34736764430999756,2.1626136302948,1.173064947128296,-1.4674385786056519,-1.4770301580429077,0.527786910533905,4.23401403427124,-3.2581090927124023,-0.08502864837646484,1.0389598608016968,5.20810079574585,1.0167806148529053,-2.160099744796753,0.7202813625335693,4.153797149658203,1.6439040899276733,-8.46969985961914,4.465031623840332,3.0341544151306152,1.8157850503921509,0.15529024600982666,0.30974382162094116,4.625619411468506,-1.3106896877288818,4.50362491607666,-1.6525061130523682,3.3895962238311768,1.890954613685608,-4.908205509185791,2.727372884750366,1.8966922760009766,-9.729787826538086,2.3406271934509277,8.95977783203125,-1.7318637371063232,0.7130302786827087,0.6244080662727356,7.141547679901123,-0.1510094553232193,0.1850304901599884,0.3414938747882843,-0.2382390946149826,0.06689369678497314,0.07352183759212494,-0.17878276109695435,-0.10818494111299515,0.14722195267677307,1.3486862182617188,0.06147141009569168,0.036115001887083054,0.054008498787879944,1.4910016059875488,0.7127467393875122,0.7671165466308594,0.732602596282959,0.5687265992164612,-0.27978989481925964,0.5258190631866455,-0.43612542748451233,-0.2544836699962616,-0.03536882624030113,0.761620283126831,-0.6083078384399414,0.15850147604942322,-0.332531601190567,-0.23376621305942535,-0.5153760313987732,1.4333577156066895,-0.2759276032447815,0.08455920964479446,-0.569097101688385,-0.09628306329250336,0.21636950969696045,0.11978964507579803,0.9084829092025757,-0.7129763960838318,-0.19965261220932007,-0.7332446575164795,0.322666734457016,-3.191561698913574,0.19147798418998718,0.604070782661438,-2.0082011222839355,2.5466504096984863,1.0428810119628906,-1.405985713005066,-0.22777333855628967,-1.75277578830719,2.0850396156311035,1.0510259866714478,-1.5459967851638794,-0.8725287914276123,0.4071081280708313,-0.14341770112514496,-2.3708655834198,-1.5141419172286987,0.0962413027882576,0.8077884316444397,-0.3424658179283142,-1.5641164779663086,0.9091405868530273,0.9237460494041443,-0.7652446627616882,1.214902639389038,1.8542003631591797,-0.9466402530670166,-0.8817078471183777,-1.596201777458191,-0.09201368689537048,-0.4434882700443268,1.499837040901184,3.0346856117248535,-0.025712916627526283,0.5674223899841309,-2.7392687797546387,-0.9896794557571411,-0.24595065414905548,3.633977174758911,-0.08343897014856339,0.5098278522491455,-4.788428783416748,1.5977586507797241,0.7588521242141724,0.0983506366610527,-3.561925172805786,3.323700189590454,0.9286591410636902,-3.383352041244507,4.124854564666748,1.092557430267334,-0.9095697999000549,3.385263442993164,-0.6578497886657715,6.436313152313232,-0.20195943117141724,5.926392078399658,-4.620306491851807,1.9569109678268433,-2.3124301433563232,0.219895601272583,-3.2657394409179688,5.989595890045166,-1.6199098825454712,6.28236722946167,-2.9397294521331787,-2.522307872772217,4.601215362548828,1.0585618019104004,2.2928872108459473,-1.2390460968017578,-2.7044565677642822,0.14175257086753845,2.3244807720184326,-0.6867191791534424,-1.8606420755386353,-0.037171371281147,-0.553925096988678,1.8332159519195557,0.8089199066162109,-1.0847537517547607,0.4351418912410736,-0.8609801530838013,-0.9938176870346069,0.47999972105026245,-1.1357165575027466,-2.2651491165161133,0.4861227869987488,1.5098634958267212,-0.15023019909858704,-1.8267642259597778,-0.499762624502182,1.3935099840164185,-1.9288357496261597,0.21625623106956482,0.3093845546245575,-0.32164645195007324,-0.11773175746202469,0.6308262348175049,-0.4503845274448395,0.5940302014350891,-1.0019690990447998,0.3912210464477539,1.17463219165802,0.20358195900917053,-0.6547026038169861,2.0652763843536377,0.053716856986284256,0.5293979644775391,0.0008207926293835044,-0.12103668600320816,0.7085095643997192,-2.1466312408447266,0.623756468296051,-0.6326099634170532,-0.1756586730480194,-3.828587770462036,-0.38719654083251953,0.5285919904708862,0.6008086800575256,-1.0534840822219849,-0.433790385723114,1.8047726154327393,0.532799482345581,0.02954752743244171,0.6890730857849121,-1.126880168914795,0.7922430038452148,1.0653365850448608,0.15933021903038025,-1.792932152748108,-0.7706817388534546,0.17936170101165771,0.4195499122142792,0.6411917209625244,0.3742080628871918,0.6365271210670471,2.7097175121307373,0.542234480381012,0.42147210240364075,0.19452141225337982,-0.22840601205825806,-0.09881233423948288,-1.4899506568908691,-0.7190302014350891,-0.35430195927619934,-0.2291274219751358,0.4094262421131134,-1.9589999914169312,-0.7273958921432495,1.3233917951583862,-1.1393591165542603,0.9960839748382568,0.9597211480140686,-0.01419906411319971,-0.9275339841842651,-0.29960277676582336,1.3281995058059692,0.78874671459198,-1.6979985237121582,0.392963707447052,0.7558394074440002,0.49503564834594727,-0.40559735894203186,-1.989979863166809,0.6111219525337219,0.3963544964790344,-0.06365255266427994,-0.6071669459342957,0.9734174609184265,-0.4431358277797699,-0.6223767399787903,-0.8990477919578552,0.8011922836303711,0.1785854548215866,-0.4522046148777008,-0.19920778274536133,-0.06742338091135025,1.0099824666976929,1.1732827425003052,2.757479667663574,-1.2438547611236572,2.5248353481292725,2.7418549060821533,-0.6058437824249268,-1.7520099878311157,-0.5154849290847778,1.5936639308929443,-1.2119314670562744,-0.5966830253601074,-2.595663070678711,0.4406268298625946,-1.1473597288131714,-0.4162953197956085,-0.7479718923568726,1.0931357145309448,1.639836072921753,1.8326717615127563,1.1108630895614624,-0.0550989992916584,1.0406298637390137,0.04019095376133919,-0.40114837884902954,-1.0647168159484863,0.3303837180137634,1.1041499376296997,0.36844897270202637,-0.6656075716018677,1.2058120965957642,-1.3265661001205444,-2.3037142753601074,1.5561846494674683,0.67726069688797,0.8423668146133423,-0.2481425404548645,-0.3049146831035614,-2.1892025470733643,-2.826270818710327,0.8806140422821045,0.7538634538650513,-0.2537339925765991,-0.4696422219276428,0.7920061945915222,1.1199588775634766,0.1850343644618988,0.12718693912029266,-0.36781859397888184,-0.7516699433326721,1.360295295715332,-0.422617644071579,-0.18780408799648285,-0.7632904648780823,-1.6689426898956299,2.9957053661346436,-0.42085617780685425,-1.664582371711731,-1.5486794710159302,0.41245323419570923,1.149144172668457,-1.6171107292175293,-0.4838535785675049,0.8574395179748535,0.6772419810295105,0.5459532141685486,0.1423172503709793,1.367494821548462,-0.4609614312648773,-0.31025445461273193,0.2390403002500534,1.3919963836669922,0.8611855506896973,-0.7920049428939819,0.6394549608230591,-0.11042783409357071,-1.125908374786377,-0.523646354675293,-0.049516711384058,0.15527138113975525,1.7987678050994873,-3.7377893924713135,-1.8851020336151123,2.7718851566314697,-1.9098237752914429,1.0886750221252441,-1.8572776317596436,-0.8139631748199463,-1.9487653970718384,-2.181621551513672,3.0461082458496094,2.0970242023468018,-0.02743113785982132,-1.5105067491531372,1.3987003564834595,-0.189967080950737,-3.006566047668457,-1.9739142656326294,-0.5412745475769043,1.5800217390060425,-0.6602670550346375,-1.1005277633666992,3.313004970550537,1.3930317163467407,-1.0677415132522583,0.27462393045425415,1.0226494073867798,1.2471064329147339,-2.126199960708618,-1.2712525129318237,0.5412278771400452,-1.9494324922561646,1.962076187133789,-0.2122427523136139,-2.455902099609375,0.6119759678840637,-1.557769775390625,-1.4768080711364746,2.1343491077423096,2.802044630050659,-3.1940906047821045,1.7641174793243408,-1.705991268157959,-3.300755739212036,-0.7025028467178345,-6.566662311553955,-3.096318483352661,-1.8993884325027466,1.8391776084899902,1.4709924459457397,3.1591074466705322,4.089868545532227,0.2511468827724457,1.424952507019043,2.6248860359191895,2.2951340675354004,-1.768362045288086,1.0314737558364868,-1.08583664894104,3.865678071975708,-3.294330358505249,-4.3388495445251465,1.1422584056854248,2.2330472469329834,-0.7540181279182434,3.561014175415039,0.30097490549087524,0.12375351041555405,-8.315810203552246,-2.101672649383545,-1.765722632408142,0.36153024435043335,-0.8364791870117188,-6.087133884429932,-0.7937952876091003,0.374773770570755,1.4023451805114746,-0.9912902116775513,-2.5789408683776855,1.5313491821289062,-0.6595428586006165,-0.03476396203041077,-2.9222633838653564,-3.2883520126342773,2.1525774002075195,2.50281023979187,-0.21593356132507324,0.15858124196529388,1.1815145015716553,-0.33952638506889343,0.32838883996009827,1.9448529481887817,-1.3500221967697144,-0.8555505275726318,0.31157732009887695,1.8089312314987183,1.7154291868209839,-0.3333597779273987,-2.5530121326446533,3.90817928314209,1.149291753768921,0.08432766795158386,-0.8565938472747803,-2.4608776569366455,2.390789747238159,-3.2366132736206055,-0.1543712615966797,1.7967183589935303,-3.5748507976531982,-1.7855974435806274,1.5794916152954102,-0.6239097118377686,1.4033803939819336,-0.17697766423225403,0.07264425605535507,2.301813840866089,-1.2147904634475708,0.9853614568710327,-2.4841742515563965,1.7298251390457153,-0.6221870183944702,-1.4602288007736206,0.10842146724462509,0.006518635433167219,1.3710567951202393,2.0416181087493896,3.8531386852264404,2.333890676498413,0.7035562992095947,-0.13880734145641327,-0.07355246692895889,0.7945542335510254,0.5689831376075745,-0.8702171444892883,-3.4686968326568604,-2.4080355167388916,3.657215118408203,0.21726283431053162,0.2342216670513153,2.9854400157928467,-0.5694600343704224,3.794210910797119,0.13582706451416016,-2.942412853240967,-0.9007395505905151,-3.4973206520080566,1.5520638227462769,0.20907631516456604,-1.7387166023254395,1.239417552947998,-0.01194518432021141,-1.576789140701294,1.3241044282913208,-1.897854208946228,-0.6978978514671326,-0.9954272508621216,-1.9722535610198975,-0.5632956624031067,-1.0905919075012207,3.0922353267669678,1.2832696437835693,1.5552259683609009,1.8291321992874146,0.8017187714576721,0.4197065532207489,0.48971953988075256,1.0084202289581299,-1.2901345491409302,-0.14908361434936523,-1.7026821374893188,1.6682789325714111,-2.6728060245513916,-1.287336826324463,-0.22183014452457428,4.558969020843506,-0.6272251009941101,1.4807604551315308,-1.4560915231704712,-0.14411522448062897,-2.70064115524292,-1.1724858283996582,-1.3391133546829224,-6.567404270172119,-0.16456782817840576,-3.028698205947876,1.802885890007019,-4.284853458404541,-2.9582157135009766,1.553964614868164,-0.4891265332698822,2.7019460201263428,-3.313868284225464,-2.1364591121673584,-7.578390121459961,-6.480769157409668,4.499444007873535,7.330582618713379,-4.159509181976318,-1.7898844480514526,6.446552753448486,1.1321839094161987,-2.9901297092437744,-2.450425148010254,-3.7419886589050293,1.383028268814087,-4.066050052642822,-1.3709584474563599,5.504146099090576,-0.238614022731781,-6.184880256652832,5.486301422119141,3.757939577102661,1.2166937589645386,-4.833977222442627,-6.9313859939575195,3.0717499256134033,-9.23332405090332,-1.563503384590149,2.740720272064209,4.688584804534912,6.38871955871582,4.7858686447143555,-8.130306243896484,4.111618518829346,4.0176215171813965,-1.2359358072280884,2.2178611755371094,-2.904740333557129,4.280420303344727,6.518514156341553,3.7504665851593018,8.313556671142578,-2.6265594959259033,-3.3131980895996094,2.8273496627807617,7.348228454589844,-1.8772809505462646,-2.1594862937927246,1.0136535167694092,8.022407531738281,-2.00960373878479,-6.070816993713379,4.450634002685547,1.6721134185791016,-5.50835657119751,4.544402599334717,3.8410558700561523,-4.3174028396606445,-6.442793846130371,-5.534421443939209,3.2092854976654053,6.2186150550842285,-3.291875123977661,4.005106449127197,0.40431854128837585,-5.609731197357178,-3.60269832611084,0.6240207552909851,2.8342649936676025,-0.27399855852127075,-0.55854731798172,-2.546966075897217,0.18313340842723846,0.5412915945053101,-0.09504666179418564,-3.294494390487671,-2.2469727993011475,-1.4436074495315552,-1.1718659400939941,-1.7125370502471924,1.4191570281982422,1.9683150053024292,1.1444735527038574,1.3222476243972778,2.755194902420044,0.7537447810173035,0.14034219086170197,-0.22513620555400848,0.5363143086433411,-2.475860834121704,0.5588812828063965,0.9924427270889282,-4.734475135803223,-1.9019052982330322,1.7967214584350586,-0.9890354871749878,1.6099698543548584,1.1565653085708618,-0.170566126704216,2.4239113330841064,-7.130436897277832,-1.3344197273254395,-0.5857860445976257,2.612881660461426,-3.0298831462860107,-1.0765708684921265,2.361495018005371,-0.20840413868427277,-1.5681239366531372,2.929276466369629,-2.7993643283843994,3.377887725830078,-2.93705677986145,-1.1041518449783325,0.3273773193359375,-1.7685602903366089,0.2448958158493042,1.1851017475128174,1.5925945043563843,-2.702350616455078,1.8595917224884033,0.7165418267250061,-1.1424039602279663,-2.33691668510437,-0.5972474813461304,4.047878742218018,-1.2629785537719727,0.055375467985868454,1.004947543144226,-0.5788486003875732,-1.0409326553344727,1.260168433189392,1.0776078701019287,3.3106608390808105,-4.3853559494018555,-0.795070230960846,2.1929125785827637,-0.2363809496164322,3.2301735877990723,0.6611948013305664,-3.0479257106781006,-0.39481133222579956,6.104164123535156,-0.15386241674423218,-1.0674737691879272,2.215441942214966,-0.15048573911190033,0.749867856502533,1.4139463901519775,-1.7429089546203613,-1.028805136680603,-2.245798110961914,-1.872897982597351,0.5906734466552734,1.80161714553833,4.783468723297119,4.56510591506958,2.1321356296539307,2.3395888805389404,-2.9668798446655273,-1.2505680322647095,-2.8806071281433105,0.32941004633903503,2.417480230331421,1.4703378677368164,1.5145058631896973,-0.5285109877586365,-3.2276928424835205,5.050726413726807,2.4287004470825195,2.2742443084716797,6.144023895263672,-1.8274091482162476,2.6808505058288574,-4.267291069030762,-0.14230544865131378,0.07458588480949402,3.1249184608459473,2.4104814529418945,-1.0145460367202759,0.399890273809433,0.752970278263092,-7.324774265289307,4.955034255981445,-2.728127956390381,0.5953083634376526,-4.2688188552856445,1.0224863290786743,-1.4065967798233032,1.2342183589935303,0.9036865830421448,0.8663743734359741,0.4526844024658203,-0.7757948637008667,3.524949073791504,0.4276559352874756,-3.5530452728271484,-0.6084653735160828,0.8616639971733093,0.21021631360054016,-8.869424819946289,0.9887633919715881,0.8519874215126038,1.1793737411499023,2.0176877975463867,-1.4850629568099976,-2.6837737560272217,4.212172508239746,-0.4763789176940918,2.2118139266967773,0.4208834767341614,-0.9873220324516296,7.060859680175781,0.6206222176551819,4.14461088180542,-5.350488662719727,-3.1888487339019775,4.061768531799316,-2.8754332065582275,-2.138289451599121,1.264391303062439,-2.651360034942627,4.471633434295654,0.7687644362449646,-2.0755879878997803,0.8920623660087585,-2.5426125526428223,0.6170986294746399,1.600637674331665,-1.0749324560165405,-0.9849244952201843,-0.44077402353286743,2.379222869873047,-1.072263240814209,-5.911591053009033,1.582711100578308,5.260023593902588,-0.14924383163452148,-1.479106068611145,-1.3040391206741333,2.3751580715179443,-1.5103182792663574,2.3554420471191406,-0.08791939914226532,2.2334072589874268,-2.1450157165527344,-2.4337692260742188,-0.7050642371177673,-1.1440755128860474,4.4091081619262695,5.376492023468018,-0.17421510815620422,1.585294246673584,1.3117330074310303,-2.4815516471862793,0.997623860836029,-1.4416987895965576,0.13046981394290924,0.5987519025802612,-0.21090729534626007,-5.361300945281982,-0.41771966218948364,-1.2182519435882568,-2.026637315750122,-0.8496796488761902,0.06458935141563416,1.997044563293457,0.646578848361969,4.2678937911987305,3.063337802886963,-0.6758819222450256,2.184190273284912,-2.85210919380188,-2.7861850261688232,1.659349799156189,1.0665931701660156,2.6788275241851807,-4.168517112731934,-4.819692611694336,3.906437873840332,-0.4705907106399536,5.872027397155762,2.050771951675415,1.7982468605041504,4.3322434425354,-1.9401512145996094,-1.2551932334899902,-1.0110008716583252,5.070948123931885,-2.8818740844726562,0.46053194999694824,-6.986570835113525,2.2035953998565674,-0.7438128590583801,-1.3559093475341797,1.7931259870529175,2.9873156547546387,2.872636556625366,4.730276584625244,3.3575713634490967,3.807659149169922,-2.3833413124084473,-0.06601481884717941,0.6969196200370789,2.943321704864502,0.12225795537233353,2.9830901622772217,1.6414319276809692,7.314281940460205,2.5526063442230225,-4.5675153732299805,7.339361667633057,0.7473207712173462,-3.6835529804229736,2.7461066246032715,-3.646470069885254,0.17394298315048218,-8.14753532409668,-0.6680262088775635,1.215369462966919,2.7313547134399414,2.3145875930786133,2.6666548252105713,3.8415606021881104,-7.963812351226807,-0.7409932017326355,-4.746848106384277,1.7846928834915161,1.276425838470459,-3.214278221130371,3.0209226608276367,3.1901705265045166,-0.28166353702545166,5.057685375213623,-3.6731534004211426,-0.33380189538002014,-0.27247512340545654,-4.3943071365356445,2.5088863372802734,2.816153049468994,1.6599279642105103,-0.3790113031864166,2.0297486782073975,1.7666833400726318,-2.188981533050537,0.22853684425354004,-1.8907394409179688,3.2266147136688232,1.9305073022842407,-1.5875637531280518,-0.039462629705667496,-2.2176711559295654,-4.390615463256836,4.0501790046691895,-1.2646207809448242,2.678338050842285,-3.619382381439209,-7.511968612670898,3.557645320892334,-4.499091148376465,-0.3127737045288086,-1.0185410976409912,8.478014945983887,0.8849607706069946,-2.681605815887451,-1.3303073644638062,0.37755993008613586,1.1334044933319092,-1.1687378883361816,0.9664937257766724,2.151109218597412,1.2251263856887817,0.8166428208351135,3.305025577545166,2.4296679496765137,2.1224160194396973,-2.040022373199463,0.4779517352581024,1.0838794708251953,0.07557716965675354,0.5357242226600647,2.1757853031158447,1.0787363052368164,0.8294053077697754,-1.1558403968811035,1.0706504583358765,3.197399377822876,-4.667065143585205,2.4696145057678223,-0.8611774444580078,-2.5573689937591553,-2.8555209636688232,1.8674302101135254,1.2877541780471802,1.0610911846160889,-0.578125,2.914870500564575,0.292039692401886,3.1140503883361816,0.9901645183563232,-3.2452948093414307,3.256802558898926,2.363429069519043,-3.3057003021240234,-0.5590078234672546,3.8331878185272217,-4.029927730560303,4.85923433303833,-4.233853816986084,0.07120121270418167,-0.24084581434726715,-0.794731080532074,2.1038455963134766,0.9936041831970215,5.515358924865723,-5.179973125457764,-1.0000131130218506,1.8316866159439087,-2.381216287612915,0.4818689525127411,-4.220432281494141,1.8221206665039062,1.1387990713119507,-2.6452369689941406,0.5878956317901611,1.8934314250946045,2.2143335342407227,-0.05612466484308243,-0.3329954743385315,6.799222469329834,-3.4119598865509033,-4.110607624053955,2.1401538848876953,-1.2047492265701294,1.2342358827590942,-3.7271504402160645,-2.7105822563171387,-3.473278045654297,3.6113474369049072,0.38824111223220825,-3.6493334770202637,4.664754390716553,6.0544867515563965,-7.746265411376953,10.834461212158203,-2.7958078384399414,-3.4158222675323486,-2.038182020187378,-3.7522006034851074,6.030086994171143,3.771777629852295,1.1210365295410156,-4.385507583618164,0.17618218064308167,2.6780996322631836,-0.6394737362861633,2.6436636447906494,-4.452158451080322,1.46885085105896,2.6229641437530518,-1.2480812072753906,1.1713658571243286,-1.7083241939544678,-2.0192174911499023,8.627579689025879,0.6724247336387634,1.4654908180236816,-6.2564921379089355,-11.39639949798584,7.625607013702393,-3.012516975402832,-0.20466938614845276,-2.05831241607666,-4.845900058746338,6.631646633148193,-2.883488655090332,-1.9654850959777832,3.6359100341796875,2.7883384227752686,-2.212097406387329,-1.4103480577468872,-3.4364192485809326,-4.352948188781738,1.7894686460494995,-3.5408694744110107,6.170816898345947,7.790280818939209,1.6055521965026855,-4.4407172203063965,3.9760138988494873,-1.0079883337020874,-4.9848785400390625,-9.220820426940918,-3.5002329349517822,1.3546983003616333,3.1966779232025146,-0.6308104991912842,-12.150580406188965,5.237808704376221,2.273515462875366,3.323892831802368,1.785495400428772,9.849544525146484,-10.119901657104492,-0.018284684047102928,1.8061240911483765,-4.86460542678833,-5.953969955444336,4.832135200500488,4.343203544616699,-2.968154191970825,-2.3032965660095215,-0.1027824878692627,10.144654273986816,-12.924009323120117,-3.172485589981079,9.877721786499023,-11.125653266906738,14.83044719696045,4.341674327850342,-7.001766681671143,-6.298930644989014,-9.009173393249512,8.126855850219727,4.889827251434326,-0.98424232006073,-8.9504976272583,5.72050666809082,-4.7057085037231445,5.064567565917969,-8.003572463989258,-3.43281888961792,6.879105091094971,-3.35787034034729,3.4771785736083984,8.002381324768066,-6.26024866104126,-6.037039756774902,0.4468514323234558,7.771780490875244,8.205084800720215,-8.684121131896973,0.1700725108385086,-0.37745609879493713,-4.3165283203125,12.86668586730957,12.424760818481445,-1.7718334197998047,-3.0712103843688965,5.113850116729736,2.3564536571502686,-10.519179344177246,2.5622787475585938,8.55121898651123,-6.999777317047119,7.438104629516602,2.7308287620544434,-4.475391864776611,-4.73543119430542,5.586092948913574,19.733667373657227,8.131329536437988,3.0908827781677246,-4.853322982788086,1.2472631931304932,9.337408065795898,-7.756267070770264,1.3792885541915894,-12.835365295410156,1.9221642017364502,6.874653339385986,-6.244776725769043,5.463630676269531,2.0500454902648926,-1.398858904838562,10.06476879119873,0.7372997403144836,5.702620983123779,-6.876125335693359,-7.378363609313965,11.347594261169434,1.0968704223632812,4.716973304748535,0.5741857290267944,1.4845154285430908,2.0215799808502197,-2.850367784500122,-1.7275378704071045,2.4982848167419434,0.7208976745605469,-2.3126158714294434,2.0328528881073,-1.4683302640914917,0.12649697065353394,1.5472580194473267,1.0032339096069336,1.9391014575958252,-1.205297827720642,-2.561446189880371,0.1256844401359558,2.1461687088012695,-1.960996389389038,-2.2220425605773926,0.4920245409011841,1.0213698148727417,1.7968733310699463,-1.8338264226913452,1.3572787046432495,-0.5913370847702026,-1.061697006225586,1.6640366315841675,2.075927257537842,-2.38602352142334,1.7360353469848633,-0.6303603053092957,2.3361105918884277,0.9026463627815247,-2.226364850997925,1.898584008216858,-1.3248933553695679,-2.062783718109131,7.3007097244262695,-4.001010894775391,-5.838929176330566,6.0939130783081055,7.815657615661621,-1.135274052619934,-8.374537467956543,8.787954330444336,3.101827621459961,3.226510763168335,-1.653468132019043,6.116854667663574,6.2081522941589355,-11.042869567871094,-13.64361572265625,-15.35783576965332,-4.23971700668335,-11.148391723632812,-3.172813892364502,3.8109002113342285,-6.209936618804932,6.949010372161865,5.289867401123047,-4.206599712371826,1.985580325126648,-0.04086732119321823,6.136361598968506,7.074950695037842,-1.8944834470748901,-1.5599260330200195,-5.546394348144531,0.39225414395332336,14.579792976379395,-6.35615873336792,-0.3905661404132843,-4.7126898765563965,6.624860763549805,4.85671854019165,-5.810651779174805,1.0012942552566528,7.489139080047607,3.988455295562744,-0.24288132786750793,-13.278334617614746,6.264094829559326,4.631942272186279,7.597719192504883,4.611840724945068,4.53121280670166,4.5395426750183105,-7.086153507232666,-2.6245503425598145,-11.407344818115234,-6.139655113220215,-7.0453386306762695,-5.760775089263916,6.9050493240356445,-13.173556327819824,-7.085944175720215,7.049915790557861,-9.981266021728516,1.4545692205429077,-4.9946208000183105,3.3652713298797607,14.557119369506836,-3.014740228652954,-2.9842679500579834,-6.413893699645996,-7.0834174156188965,1.2806918621063232,-4.350100994110107,5.501743316650391,-1.9848275184631348,5.516190528869629,2.358168601989746,1.0674302577972412,3.662755012512207,-17.06180191040039,-1.686707854270935,14.260522842407227,2.5680992603302,4.683384418487549,-4.422750949859619,6.669730186462402,3.800488233566284,-1.7512588500976562,3.0596115589141846,8.423661231994629,-0.13333693146705627,9.29798412322998,5.763094425201416,5.702457427978516,-3.717648983001709,4.4901251792907715,3.264007091522217,-12.643665313720703,-9.384960174560547,19.756099700927734,-4.522723197937012,1.2051234245300293,0.8470529317855835,-13.593636512756348,3.200453042984009,-2.6908304691314697,-6.755581378936768,13.464795112609863,-7.10721492767334,1.2860230207443237,4.665346145629883,12.5133638381958,-1.3689765930175781,-1.1588720083236694,2.185649871826172,0.4773509204387665,-0.04584469273686409,-0.10935439169406891,0.02692124992609024,-1.0813279151916504,0.5043184161186218,-0.33151212334632874,0.29312214255332947,0.09819204360246658,-0.29916736483573914,-0.24802294373512268,-0.24107493460178375,0.31696462631225586,0.488517165184021,-0.5624344944953918,-0.12904766201972961,-1.3362231254577637,-0.07194008678197861,0.6450706720352173,-0.8052247166633606,-0.6301229000091553,0.027569370344281197,0.41183075308799744,0.39743340015411377,0.25567153096199036,0.7505868077278137,0.11048302799463272,0.2962411940097809,-0.4575737416744232,-0.1308993548154831,-0.2516893744468689,-0.626829206943512,-0.6306212544441223,-0.9833124279975891,-0.3535662293434143,0.45178723335266113,0.6709034442901611,0.8993991017341614,-0.3181793689727783,0.30915966629981995,1.471665620803833,-0.1217709630727768,0.12835343182086945,-0.6129300594329834,0.7188950181007385,0.9805612564086914,-0.20254182815551758,0.7303436398506165,0.3685697019100189,-0.0724213495850563,-0.7053754925727844,0.5311582088470459,-0.3741567134857178,-0.19145455956459045,0.036607712507247925,0.23695392906665802,1.2719247341156006,-0.11768729984760284,0.6634311079978943,-0.8054431676864624,0.14274990558624268,1.354547381401062,0.3929840624332428,-0.7857148051261902,-0.436680406332016,-0.9720888137817383,0.5728392004966736,0.7473105788230896,-0.42210653424263,-0.047234907746315,0.8262750506401062,-0.14485986530780792,0.044789332896471024,-0.0563277006149292,-0.048819705843925476,-0.04901348799467087,0.007200825959444046,-0.07386139780282974,-0.07760030031204224,-0.05606962740421295,-0.01906704343855381,-0.031539980322122574,0.02856658399105072,-0.014820622280240059,0.005047261714935303,0.027749929577112198,-0.06753024458885193,0.02338857389986515,0.048237305134534836,-0.051994968205690384,-0.0204053595662117,0.02260257489979267,-0.03748108446598053,-0.03880726546049118,0.031518105417490005,-0.045701317489147186,0.017696715891361237,0.05290639027953148,-0.056198082864284515,-0.06937476992607117,0.023676687851548195,-0.031446363776922226,0.0612858422100544,-0.06821548938751221,0.04589691758155823,0.063576340675354,0.07786012440919876,0.06948211789131165,0.010927584022283554]},"hiddenLayers":[{"inputMatrix":{"rows":20,"columns":37,"weights":[0.6818112134933472,0.38390010595321655,0.7766510248184204,0.5654720664024353,-0.0034614356700330973,-1.9367644786834717,1.343623161315918,-0.25863879919052124,-1.5392417907714844,-0.33428654074668884,0.18479827046394348,0.46705907583236694,0.7931247353553772,0.9084622263908386,0.12606559693813324,0.14919045567512512,-0.2636261582374573,0.24196256697177887,-0.08101972937583923,-3.030097484588623,-2.182347059249878,0.806920051574707,0.30849164724349976,-1.2654523849487305,-2.4524924755096436,0.40018361806869507,0.8301950097084045,0.9943534731864929,-1.9318947792053223,1.0520259141921997,0.38327884674072266,-0.39688265323638916,0.5558536052703857,-1.1961917877197266,1.0760968923568726,1.2284138202667236,-0.041555240750312805,-2.4246411323547363,1.3361966609954834,1.1965006589889526,-0.3956405818462372,-0.37072017788887024,1.1750849485397339,0.5978695154190063,-0.9246861934661865,-0.04096744954586029,0.5986495018005371,-0.07514630258083344,-1.4549773931503296,0.21622663736343384,2.6937923431396484,2.430603265762329,-0.47864800691604614,1.5874943733215332,2.1576333045959473,-0.657685399055481,-0.41540026664733887,0.07602063566446304,-0.1473006308078766,-0.2689596116542816,0.6840618848800659,-1.015720248222351,1.928755760192871,-0.12809190154075623,-1.651007056236267,0.45977047085762024,1.370516061782837,-1.2174969911575317,0.08649751543998718,-0.680542528629303,-0.34809771180152893,-0.9188441038131714,0.4234824478626251,0.48682716488838196,1.4702285528182983,0.26389652490615845,-0.26847049593925476,0.13613106310367584,2.736370325088501,-0.03630264103412628,-1.2092491388320923,-0.17986638844013214,-0.2236618995666504,-0.029957769438624382,-0.16738000512123108,0.2514714300632477,2.3093385696411133,-0.18333429098129272,-1.7084800004959106,-0.623420238494873,-0.0007419572211802006,-1.3851195573806763,-0.717359721660614,-0.539732813835144,-0.20163585245609283,0.6927297711372375,0.549102246761322,-1.5545413494110107,-0.6700798273086548,-0.41585594415664673,0.4976123869419098,2.2654106616973877,-0.05164919048547745,0.36439818143844604,-0.19725628197193146,0.06383248418569565,1.5595200061798096,-1.1720505952835083,0.15422208607196808,0.550841748714447,0.7546815276145935,1.9147417545318604,-1.5330225229263306,0.24124570190906525,-0.10619639605283737,1.1022261381149292,2.011408805847168,-2.340366840362549,0.7808279991149902,-0.6615694165229797,2.192026376724243,1.3291274309158325,1.481380581855774,0.5665338039398193,0.23623840510845184,-0.9561680555343628,1.3416334390640259,-0.8846393823623657,-0.6825807094573975,-0.8346846103668213,0.6542071104049683,-0.3397822380065918,-1.2239444255828857,0.4279298782348633,2.334859609603882,-0.49287334084510803,-1.1417875289916992,0.7391659021377563,-0.3438585698604584,-1.171646237373352,0.2732967138290405,-0.3882977366447449,0.38876253366470337,0.14114998281002045,-0.6726725101470947,2.373339891433716,2.0010557174682617,0.15491779148578644,-0.8320114016532898,0.6543159484863281,-0.451344758272171,-0.07826808840036392,0.9707226753234863,0.20417413115501404,-0.20506873726844788,0.501979410648346,-1.6174432039260864,-0.7816191911697388,0.6493268013000488,-0.9817074537277222,-0.43646976351737976,-1.3845394849777222,0.088593989610672,-0.7222095131874084,0.11933678388595581,0.16029873490333557,-1.2904633283615112,0.9580371975898743,-0.06923139095306396,0.41557732224464417,-0.23419176042079926,-1.1745916604995728,0.25675204396247864,0.8262556195259094,-0.3154743015766144,0.6085271239280701,-1.0608266592025757,-0.09082718193531036,-1.866473913192749,0.3443588614463806,0.5531468987464905,-0.7362052202224731,0.57152259349823,-0.8592798709869385,-0.10028306394815445,1.6014726161956787,-0.5885568857192993,0.2560703456401825,0.5176222324371338,0.9246700406074524,-0.1274322122335434,-0.9194736480712891,0.04129897803068161,1.5405186414718628,0.6220574378967285,1.2022267580032349,1.199972152709961,1.0854610204696655,-0.7422696352005005,-0.9949304461479187,0.08047276735305786,-1.7790614366531372,-1.251182198524475,-0.31752488017082214,-1.0444765090942383,0.28887107968330383,0.028542131185531616,0.04364992678165436,-0.3770967125892639,0.38967546820640564,-1.04232919216156,2.223975896835327,1.1516624689102173,0.49628373980522156,-0.6990328431129456,-0.507070004940033,-0.6763301491737366,1.063190221786499,-0.34992799162864685,0.01508341170847416,0.5681039094924927,-0.7159333229064941,-1.421462059020996,0.598276674747467,0.4366818964481354,0.6274994015693665,-0.7510726451873779,-1.0331743955612183,0.2647775709629059,-1.3806017637252808,0.7492015957832336,-2.95334792137146,-0.6096512079238892,-1.0425283908843994,-0.5762121677398682,-0.936082124710083,0.90834641456604,1.3171958923339844,-0.6251668334007263,0.06778406351804733,-0.5072863101959229,-0.5044392943382263,-0.2329331785440445,-0.7531578540802002,0.22555996477603912,-1.7035317420959473,0.8150423765182495,1.3086647987365723,-0.12816926836967468,1.326863169670105,0.012811515480279922,-0.06522943824529648,1.652288794517517,-0.3546281158924103,0.34200361371040344,-0.18769101798534393,-1.9056720733642578,-1.4665030241012573,-0.6613962650299072,0.2572001814842224,-0.34685221314430237,1.6041834354400635,-0.43106934428215027,0.8444432616233826,1.6433415412902832,0.3886064291000366,0.44332456588745117,-0.3322523832321167,-0.9417044520378113,0.14577727019786835,0.19413448870182037,-0.4951639175415039,-1.4431501626968384,-0.6754325032234192,1.3767824172973633,1.0699796676635742,-0.9828241467475891,0.5254017114639282,-0.6202107667922974,1.4788053035736084,-1.0943318605422974,-0.018125630915164948,2.2184364795684814,-0.5584571957588196,0.2250625491142273,-0.7935223579406738,0.2037235051393509,0.4604886770248413,-1.293784499168396,-0.370652437210083,1.3410218954086304,-0.2214890569448471,0.4272612929344177,-0.15043215453624725,-0.6832126379013062,-1.7079402208328247,-1.30925714969635,-0.1367957592010498,0.0720922201871872,0.6134709715843201,-0.751078724861145,-1.627875566482544,2.527331829071045,-0.8606701493263245,0.2663368880748749,-2.3291289806365967,-0.668923020362854,-2.1889781951904297,-1.55666983127594,-0.25353825092315674,0.4593670070171356,-0.5686285495758057,0.11408363282680511,1.4028795957565308,1.7857701778411865,-0.7249016165733337,-0.17172285914421082,0.9805672764778137,0.267309308052063,-1.054666519165039,-0.3472023904323578,1.595898151397705,-2.0866103172302246,-1.1858586072921753,-0.194268599152565,0.37282323837280273,2.6232306957244873,-0.0658201351761818,0.46010294556617737,1.2488445043563843,-0.21314488351345062,0.4304437041282654,-0.9219812154769897,0.5981932878494263,0.9079344272613525,-0.5595746040344238,-0.11991792172193527,-0.6569763422012329,0.8395031094551086,1.7882764339447021,-1.240030288696289,0.38145190477371216,-1.676814079284668,0.417915403842926,-2.5070269107818604,-0.08096171170473099,0.8311954736709595,0.8208281397819519,0.24872976541519165,0.007593143731355667,0.4878966808319092,0.049855634570121765,-1.32157301902771,0.3143889605998993,1.4060379266738892,0.0773545354604721,-0.0004931417643092573,-0.2821500897407532,2.2301788330078125,0.5222111344337463,-0.39645877480506897,0.2752198278903961,0.5180568099021912,-0.25251662731170654,-0.04285428300499916,0.0018139127641916275,-0.12823493778705597,-1.7022238969802856,1.2386287450790405,-0.17994478344917297,-0.305364727973938,1.2016838788986206,0.6542208790779114,-1.5019679069519043,-0.19443219900131226,-0.7225859761238098,1.605460286140442,0.22388674318790436,-1.3600536584854126,-1.3000075817108154,0.290615051984787,-0.7551804780960083,-0.47233766317367554,-1.0227197408676147,-0.2170885056257248,0.6337251663208008,1.3291380405426025,0.3152199983596802,-0.7016968131065369,0.6854252815246582,1.0197839736938477,-0.37496769428253174,-1.649916410446167,0.789138913154602,0.7334077954292297,0.43077802658081055,-1.6387617588043213,0.7260361909866333,0.1835736185312271,-0.8952685594558716,0.21774202585220337,1.576130986213684,0.3139379918575287,0.16547062993049622,0.1256248950958252,-1.6188174486160278,-1.4812172651290894,-0.1707480549812317,1.229946255683899,0.2337152063846588,0.28198519349098206,-0.10196090489625931,-0.628610372543335,-0.3181154429912567,0.1738128364086151,0.2773127853870392,-1.2148737907409668,0.3255920708179474,0.2701146602630615,0.3310396671295166,-1.2340763807296753,-0.8685970902442932,0.8032811284065247,-0.4541589021682739,-1.079830527305603,-0.4018155634403229,0.34558823704719543,-0.37001481652259827,-0.4831549823284149,0.22374223172664642,-2.0158469676971436,1.2188379764556885,-1.251466155052185,0.277519553899765,2.6490519046783447,-0.6155701279640198,-1.4851340055465698,0.6858897805213928,-0.17234526574611664,0.4154070019721985,-0.5874499082565308,-0.8125359416007996,-1.2201827764511108,-0.7243558764457703,-1.0823428630828857,2.4597437381744385,1.4946414232254028,-1.9563353061676025,1.2523833513259888,0.6044894456863403,-0.4879990816116333,1.2682698965072632,-1.637436866760254,-0.3942611515522003,0.3727804720401764,0.09299910068511963,0.392530232667923,-0.8818057775497437,-0.31087931990623474,0.4010567367076874,2.3969173431396484,0.29382240772247314,-0.2868479788303375,0.8869324922561646,1.3839240074157715,0.38923200964927673,-1.8348429203033447,0.3530028760433197,0.492274671792984,-0.0743679329752922,-0.9416746497154236,-0.16654299199581146,-0.6097232103347778,-0.07941683381795883,-0.40581101179122925,2.14174747467041,1.0435417890548706,-0.43002253770828247,-0.09530621021986008,-1.071561336517334,-0.8942023515701294,-1.3132258653640747,2.1576180458068848,0.3899487555027008,-0.8750202059745789,0.5047973990440369,-0.40638381242752075,0.37649446725845337,1.2091621160507202,-2.032677173614502,-0.7352409362792969,-0.10453657805919647,-0.7586430907249451,-0.5658349394798279,-0.7751387357711792,-0.2545846402645111,0.9032806158065796,0.9456149935722351,0.5027108192443848,-0.3117791414260864,0.6351842880249023,1.6085805892944336,0.3510515093803406,-1.2598553895950317,0.9003692865371704,0.3175097107887268,0.7263347506523132,-1.0337202548980713,-0.6851369142532349,0.1518397331237793,0.23480625450611115,0.18013638257980347,1.7319061756134033,0.4868892431259155,0.2652071714401245,-0.7336359024047852,-2.151561737060547,-2.1436831951141357,-1.1792904138565063,1.0611507892608643,0.3195430636405945,0.14490196108818054,-1.106641173362732,-0.8694791197776794,0.8249129056930542,-0.06131841614842415,-1.0384645462036133,-1.7717344760894775,-1.0079861879348755,-1.1409780979156494,-1.7293295860290527,-0.42910125851631165,-0.09854172170162201,1.899057388305664,-1.1301536560058594,0.40519988536834717,-0.16614112257957458,0.029596541076898575,-0.010166057385504246,-1.348831057548523,-0.3179607093334198,-0.42344722151756287,0.36273086071014404,0.9258295297622681,-2.5563414096832275,0.6325673460960388,-0.1304749846458435,0.5311158299446106,0.9081103801727295,0.4612889587879181,-1.0521174669265747,-0.04267207905650139,-0.3618015646934509,-1.4182180166244507,-0.602184534072876,-0.4739667773246765,-2.0675673484802246,-1.140975832939148,0.05095061659812927,0.1083684042096138,0.1958330124616623,-0.42446601390838623,-0.8306059837341309,0.9029889702796936,-0.16932101547718048,-1.5992183685302734,-0.1683344841003418,-1.077920913696289,0.15157756209373474,0.4603932499885559,-0.01646374724805355,0.1673651784658432,0.49428918957710266,0.8646236658096313,-0.317084401845932,-0.10803923010826111,0.0883416086435318,0.569290280342102,0.5466668009757996,-1.5087611675262451,0.7204101085662842,-0.14267082512378693,-1.4885348081588745,1.627945065498352,2.528676986694336,0.6793885231018066,0.2768551707267761,-1.3054537773132324,0.6430270075798035,0.6581059694290161,-0.10517552495002747,0.5526286959648132,-2.426732063293457,-0.23889459669589996,-0.14480134844779968,-0.04387576878070831,-0.7024486660957336,-0.3373153507709503,-0.34892889857292175,-0.43207529187202454,0.7482141852378845,0.46875259280204773,-1.4338281154632568,0.2762865424156189,-0.8609223365783691,0.49330151081085205,0.7749277949333191,0.1397404968738556,0.21299394965171814,0.9485751986503601,0.3949594795703888,0.1976063847541809,-0.7917630672454834,-0.29505783319473267,0.6927700042724609,0.12440624833106995,-0.7847917675971985,0.3446029722690582,-2.1948020458221436,-1.6000562906265259,0.9875778555870056,1.509490966796875,-0.31583648920059204,-0.16318193078041077,-1.127618670463562,0.06221394240856171,0.03814123198390007,-0.3998110890388489,0.7879106402397156,-0.7446401715278625,0.7603083252906799,0.18207238614559174,-0.7574801445007324,-0.34460482001304626,0.7712295055389404,-0.33249035477638245,1.5229952335357666,-2.0478460788726807,-0.879703938961029,0.6010744571685791,-0.5212857127189636,-0.5535640716552734,-1.3021512031555176,-0.18581272661685944,0.22371624410152435,0.8336517214775085,-0.056092262268066406,0.18315647542476654,-0.10438073426485062,0.9831209182739258,0.6772825121879578,-0.7943985462188721,0.4957456588745117,0.08466258645057678,0.29450127482414246,0.2048945277929306,0.03669949993491173,0.7471428513526917,0.31043675541877747,0.08927007764577866,1.8002210855484009,0.7413559556007385,0.13352395594120026,-0.22003215551376343,-0.2911183536052704,-1.9996224641799927,-1.392706274986267,1.3738933801651,1.9179190397262573,-0.9272745251655579,1.205544352531433,0.7262405157089233,-0.8788473010063171,1.1086608171463013,-0.685882568359375,-0.04477405920624733,-0.042729977518320084,0.15608245134353638,0.536687433719635,-0.04547129571437836,0.3870452344417572,1.4620498418807983,0.9698001146316528,0.666863203048706,-0.1521175503730774,0.6457271575927734,0.31576603651046753,-1.059171199798584,-0.7018902897834778,0.5781257748603821,-0.5118629932403564,-0.08600854873657227,-0.6431335210800171,-0.11693127453327179,-0.5817359089851379,0.6197734475135803,0.0169522687792778,0.9243392944335938,-0.1497132033109665,-0.3085555136203766,0.11860516667366028,-0.40389373898506165,-0.6889140605926514,-0.6195179224014282,-0.34913286566734314,1.9711370468139648,-0.6836140155792236,0.08154825866222382,0.6924734711647034,0.715499758720398,0.6460986733436584,-0.820834219455719,-1.211538553237915,-0.34269899129867554,0.8085092902183533,0.3583417534828186,-0.32342734932899475,-0.3581307828426361,0.2650476396083832,0.7028017640113831,-0.3378816545009613,1.602748155593872,0.4646846354007721,1.306111454963684,0.631480872631073,-0.15551674365997314,0.7775941491127014,-0.7982249855995178,-0.48261672258377075,-0.34751662611961365,-0.188849538564682,0.6108747124671936,-0.17704293131828308,0.463011234998703,1.512091875076294,-0.6283447742462158,1.0467950105667114,0.49162107706069946,-1.6074621677398682,-2.838371753692627]},"inputHidden":{"rows":20,"columns":20,"weights":[-0.8714463114738464,-1.6178147792816162,-0.5200347900390625,1.2124042510986328,-0.33300986886024475,-1.8516943454742432,-1.155870795249939,0.04162580519914627,-1.2930606603622437,1.6401419639587402,-1.1084222793579102,1.129988431930542,-0.5563091039657593,0.39270469546318054,-1.0613597631454468,-1.4126170873641968,0.5201376676559448,-0.32640939950942993,-0.13302631676197052,0.9394047856330872,0.7114373445510864,0.16958913207054138,0.4680429697036743,0.21333293616771698,0.36506515741348267,-0.5639821290969849,1.1260333061218262,-0.09659919887781143,0.21040630340576172,-1.2841308116912842,1.0230295658111572,1.08967924118042,1.0400232076644897,-0.7240495085716248,0.9139428734779358,0.8857519626617432,0.891446053981781,-0.4841655492782593,-0.12856720387935638,-0.6513792872428894,-1.8576139211654663,0.0177701935172081,3.1143548488616943,2.693103313446045,2.9436488151550293,1.0537949800491333,-2.6980648040771484,2.9322378635406494,1.9001253843307495,0.23349614441394806,1.7081172466278076,-0.2632797360420227,-2.3603715896606445,1.8042048215866089,-0.6616167426109314,0.15815427899360657,0.5037214159965515,0.3730849325656891,-2.067035436630249,-0.740018367767334,0.6404439210891724,-0.6370327472686768,-0.09547019749879837,-0.25883591175079346,-0.006805934477597475,2.8197860717773438,1.4778532981872559,-0.3987240195274353,0.5823829770088196,-0.059751611202955246,-0.4577646255493164,-1.0620912313461304,0.24994303286075592,-0.23291745781898499,0.23469670116901398,-0.05457809567451477,-1.07651686668396,-0.1361260563135147,0.3409925103187561,1.510202169418335,1.1358567476272583,0.6812554001808167,1.2038137912750244,1.3852691650390625,-0.6147896647453308,1.1690436601638794,-0.15461023151874542,3.9571518898010254,0.4070930480957031,-1.5952613353729248,1.5469907522201538,4.503009796142578,-0.9013249278068542,0.4176817238330841,-0.3836476504802704,1.7296968698501587,1.0038992166519165,-0.9642956256866455,-2.1971383094787598,-0.3839617967605591,-0.07054375112056732,-0.9529417753219604,4.623819351196289,-0.18174247443675995,-2.259634256362915,-1.589585304260254,1.916743278503418,-1.7932463884353638,-1.046881914138794,-0.12733106315135956,1.51661217212677,-0.7185584306716919,-0.3560259938240051,-3.157360553741455,-0.04155505448579788,0.6775966882705688,-2.0407705307006836,1.1749563217163086,1.4399089813232422,-4.246397972106934,2.3889873027801514,-0.00202604616060853,0.5303281545639038,-0.09154326468706131,-0.5129053592681885,-0.09276489913463593,1.2058019638061523,-1.144349217414856,-0.4525773227214813,-0.9933830499649048,-1.131944179534912,0.46355193853378296,1.163101315498352,-1.6503652334213257,0.6280373334884644,0.8171781897544861,0.09465105086565018,-0.45894747972488403,0.1053488701581955,-0.24818721413612366,-0.2602749168872833,-0.1384483277797699,-0.19676916301250458,0.2120055854320526,-1.3465110063552856,-1.2278308868408203,0.0960727110505104,-2.4708669185638428,-0.029277943074703217,0.22233574092388153,-2.208986759185791,-0.48057547211647034,0.38067013025283813,-1.698535442352295,0.3184650242328644,0.5732858180999756,-0.4591229557991028,-0.28787899017333984,0.46498429775238037,-0.7006499171257019,-1.4291108846664429,-0.8198056221008301,-1.303026795387268,-0.5833866596221924,0.4414289891719818,1.7855337858200073,-0.8848857879638672,0.2652820944786072,-1.7098288536071777,1.1552480459213257,1.7583189010620117,0.13621369004249573,-0.3845985531806946,-1.8556385040283203,-0.07224374264478683,-2.753944158554077,0.5106712579727173,-0.2563469409942627,-0.6381610631942749,0.21028268337249756,0.5436022877693176,0.9460232257843018,-2.0528180599212646,2.5482184886932373,-3.2798614501953125,-5.049468040466309,-0.42301809787750244,0.9805091023445129,-2.4565134048461914,-0.15955424308776855,1.1063650846481323,2.237992286682129,-0.1552506983280182,0.9573861360549927,-0.7307335138320923,-0.6162567734718323,1.6515828371047974,0.2848268747329712,-1.7357568740844727,2.9458465576171875,0.15319418907165527,-0.031098688021302223,0.16431862115859985,2.037152051925659,0.3393847346305847,0.5574871897697449,0.8121303915977478,1.391677975654602,0.18878597021102905,0.34862878918647766,-1.9833998680114746,-1.0658460855484009,-1.757428526878357,-1.465852975845337,-2.031076192855835,0.042594581842422485,-1.2449318170547485,1.1582194566726685,-0.7097184658050537,0.6084173321723938,-0.10346762090921402,1.4874000549316406,0.47801128029823303,-2.6370058059692383,1.9326863288879395,0.7051748037338257,-1.0829086303710938,-0.0887288898229599,0.05420903116464615,-1.117621898651123,-0.329647958278656,1.9247610569000244,-0.46679550409317017,0.3188362121582031,-0.07746504247188568,1.4387844800949097,0.9890420436859131,-0.19925867021083832,-0.6524040102958679,1.5974582433700562,0.3776969313621521,-0.40586057305336,-0.19219866394996643,0.8011385202407837,0.5760760307312012,0.7784518003463745,-0.0024484111927449703,0.88654625415802,-0.9866624474525452,0.6738786697387695,0.7715905904769897,0.22860416769981384,-0.1340666562318802,0.020411744713783264,0.39729899168014526,-1.1999458074569702,-0.03578447178006172,-0.37450742721557617,-0.08234064280986786,-0.20863460004329681,-0.33384767174720764,-0.3340150713920593,0.17561668157577515,0.6562590003013611,0.8464236259460449,1.3185304403305054,0.4529154896736145,0.9265453219413757,1.0280520915985107,-0.22771933674812317,1.1711878776550293,-0.399087131023407,0.2986563742160797,-0.8562286496162415,-0.0005594345275312662,0.1456727832555771,-0.40216097235679626,-0.43998631834983826,0.025347266346216202,-0.5500772595405579,-0.9476538300514221,-0.42240089178085327,0.5892624855041504,0.2546990215778351,-1.3052523136138916,0.31850436329841614,-0.9200135469436646,2.3667867183685303,-0.5406214594841003,0.3760158121585846,1.3948843479156494,1.1603150367736816,-1.5328141450881958,-3.102152109146118,-0.9111951589584351,-0.049521926790475845,1.6981827020645142,1.1937932968139648,0.1993548572063446,-0.9980307221412659,1.4725700616836548,0.43502485752105713,-0.9042558073997498,0.758836567401886,0.06464938074350357,2.027703046798706,1.6870498657226562,0.5690826773643494,0.07639245688915253,-0.6756207942962646,-0.25026947259902954,-0.58460932970047,-0.6622061133384705,-0.31707093119621277,0.8643150329589844,-0.725193977355957,0.19628283381462097,-0.5114755034446716,1.6162056922912598,0.25791141390800476,1.9224015474319458,0.1504804790019989,-0.8285771012306213,2.8889286518096924,-1.3395447731018066,0.6455168128013611,1.9754053354263306,0.8788480162620544,-1.2067043781280518,-1.5651804208755493,1.5430222749710083,1.7286150455474854,1.4677211046218872,0.7244906425476074,1.1766383647918701,1.215903878211975,0.45486903190612793,-1.1952335834503174,1.6186453104019165,2.475801706314087,0.11721621453762054,2.1704344749450684,0.04611583054065704,0.10429449379444122,-0.4659859538078308,2.3910133838653564,-1.2520136833190918,1.5461100339889526,0.27548280358314514,-0.6132806539535522,1.7696372270584106,2.1115305423736572,-0.616352915763855,1.6770790815353394,-0.49517199397087097,1.4504469633102417,1.214599370956421,0.02894720993936062,-1.720190167427063,1.2142740488052368,1.151868224143982,-0.06337644904851913,0.6349095702171326,-0.44479987025260925,3.818179130554199,0.13665185868740082,-0.09419316798448563,-0.4911380112171173,0.4607877731323242,-0.867317259311676,0.6587820649147034,0.020584721118211746,0.44669926166534424,-1.6473345756530762,0.15875287353992462,1.997330904006958,-0.2753472924232483,-0.14543496072292328,-1.2186403274536133,1.8132888078689575,-0.5801849365234375,-0.8576633334159851,-0.23528583347797394,2.359032392501831,0.17396967113018036,-3.5775980949401855,-0.23029203712940216,-1.026986002922058,0.1042744517326355,1.1985807418823242,2.94167160987854,-0.6302189826965332,0.5096148252487183,-2.531578779220581,0.10588114708662033,0.3736259639263153,-2.1003737449645996,-0.7294382452964783,2.409684419631958,-4.088213920593262]},"inputBias":{"rows":20,"columns":1,"weights":[0.07193787395954132,-0.8444284200668335,-1.4019864797592163,-0.685089647769928,-0.07900803536176682,0.03463919833302498,0.2349471151828766,-1.587526559829712,-0.657383918762207,1.260716199874878,-0.39889371395111084,-0.6698406934738159,-0.10411223769187927,-0.43844687938690186,-0.12455133348703384,0.036031756550073624,-1.8245230913162231,-0.13905376195907593,-0.40917301177978516,-0.8840219378471375]},"forgetMatrix":{"rows":20,"columns":37,"weights":[0.44420379400253296,-0.3630963861942291,-0.026930658146739006,-0.7232359647750854,1.918516755104065,1.3239859342575073,-1.6037657260894775,0.045218076556921005,-1.0721021890640259,1.1074498891830444,1.1139144897460938,1.2441136837005615,1.898938536643982,1.1362179517745972,-0.24689538776874542,0.17871971428394318,1.2666772603988647,-0.9982221722602844,-0.7686793208122253,1.0467466115951538,0.041894447058439255,-0.4200053811073303,-0.06797760725021362,0.8512565493583679,-0.5381970405578613,-1.3535130023956299,0.5540808439254761,-0.12338293343782425,-0.5415509939193726,0.5350015759468079,-0.9568745493888855,-0.01365459430962801,0.3771398067474365,-0.6165007948875427,1.0839693546295166,0.3252488970756531,0.18360944092273712,-1.4890105724334717,-0.1742764711380005,0.05333144962787628,-0.21780085563659668,0.41210612654685974,-0.2580614387989044,0.7463018894195557,-0.4117746651172638,-0.1342388242483139,0.9005815386772156,-0.21851970255374908,0.22800619900226593,-0.08321605622768402,1.0465762615203857,1.6059136390686035,-1.4450745582580566,1.0130759477615356,1.4795945882797241,-0.17416246235370636,1.1108566522598267,-0.9575661420822144,1.452438235282898,0.750081479549408,-0.4325504004955292,-0.8019114136695862,-0.24562779068946838,-0.38735949993133545,-0.6884468793869019,0.4175325632095337,0.532671332359314,-0.9860422015190125,-1.7379910945892334,-1.4883166551589966,0.34906771779060364,-0.45948588848114014,0.08526650816202164,1.2144575119018555,-0.10796711593866348,0.9748243093490601,-0.028629019856452942,-0.5914987325668335,-0.6711631417274475,0.8783823251724243,-0.07091772556304932,-0.48937657475471497,-0.4869001805782318,-0.18566712737083435,0.7574753165245056,-0.9952475428581238,-0.6697577238082886,0.31577974557876587,0.5078023076057434,-0.023031948134303093,1.1439659595489502,0.18557770550251007,-0.5264806151390076,-0.4481264650821686,0.24636834859848022,0.19238168001174927,-0.4340340793132782,1.407879114151001,-0.1067902147769928,0.875642716884613,0.15664008259773254,-0.3231566846370697,-0.5223928689956665,0.6101183295249939,0.023027703166007996,1.0842413902282715,-0.4372163414955139,-0.4923713803291321,0.20615704357624054,-0.46314752101898193,0.032274238765239716,-0.3448716402053833,1.5417588949203491,0.03119947388768196,-0.01213694829493761,1.7406187057495117,-0.08276555687189102,-2.0902159214019775,0.9471880793571472,-0.13892775774002075,1.1684523820877075,0.7020705342292786,-1.7538135051727295,0.029182787984609604,1.3126296997070312,0.33151549100875854,-0.505425214767456,-0.9045851230621338,0.15069729089736938,-0.7925004363059998,-1.079390048980713,0.07734072208404541,0.35081902146339417,-0.6680094599723816,-0.052523694932460785,-1.9674874544143677,1.3593195676803589,0.0699191763997078,-0.10635297745466232,-1.8975685834884644,1.6165369749069214,-1.5414185523986816,-0.9233418703079224,-0.7639379501342773,-1.1127501726150513,0.15913300216197968,0.2746600806713104,-0.026895232498645782,0.34869569540023804,-0.7458926439285278,0.8288247585296631,0.9841728806495667,-1.306450366973877,0.12813866138458252,1.6852822303771973,-1.3082963228225708,-0.03394551947712898,-1.026580572128296,-0.46077561378479004,-1.3083611726760864,-0.5797231197357178,-0.8827531337738037,-0.5100995302200317,-1.7012330293655396,-0.8284996747970581,-0.06310716271400452,2.1605000495910645,-1.0611202716827393,0.6571275591850281,1.3874430656433105,0.10986509919166565,-0.5813672542572021,-0.28088614344596863,0.5830546021461487,0.11825507879257202,-0.15380966663360596,1.9848557710647583,-1.4840266704559326,0.9897547960281372,0.4324953556060791,1.6435695886611938,2.293783664703369,-0.34726646542549133,0.46562403440475464,-0.9516273736953735,0.15711265802383423,-0.6248834133148193,-0.4505447447299957,-0.41199493408203125,0.7823109030723572,-0.18604345619678497,0.2930167615413666,-0.11797870695590973,0.16405124962329865,-0.5600808262825012,-1.0468645095825195,0.5058577060699463,-0.570014476776123,-0.5404926538467407,0.001796151977032423,0.7059378027915955,1.2236946821212769,0.24674615263938904,0.8308424353599548,1.244991660118103,-0.02056180313229561,-0.7996082305908203,0.3645291030406952,-0.18834756314754486,0.7714441418647766,-0.7266214489936829,-1.7796564102172852,-1.3617641925811768,0.9310604333877563,-0.857250452041626,0.9291256070137024,0.38528305292129517,-0.4557318687438965,0.9329181909561157,0.5213084816932678,0.19304244220256805,-0.019762562587857246,1.5049176216125488,-1.098479151725769,-1.7160831689834595,-0.24645739793777466,0.9671387076377869,2.3840677738189697,-1.0200183391571045,0.6838796734809875,-0.9572424292564392,1.3361101150512695,-0.044016264379024506,0.9001760482788086,0.561380922794342,0.6367362141609192,-0.6395411491394043,-0.7275983691215515,0.5435758233070374,-1.33491051197052,-0.3331676423549652,1.5231778621673584,0.7951909303665161,-0.4514716863632202,-0.29487934708595276,1.5142438411712646,1.5245449542999268,-1.4841899871826172,0.16621719300746918,-0.21898218989372253,0.9043603539466858,0.13804002106189728,-1.1448249816894531,0.6262143850326538,-0.3219676613807678,0.5289562940597534,0.3490099608898163,-0.07488051056861877,0.2892310917377472,-1.0732226371765137,1.3286306858062744,1.456839919090271,-0.015787649899721146,-0.7573919892311096,1.214545726776123,0.006532196421176195,-0.6972746253013611,-0.6275302171707153,-0.7431243062019348,0.582251250743866,-1.6953445672988892,0.12653009593486786,1.0361005067825317,-0.08623615652322769,0.5420045852661133,0.5798547863960266,-1.236764907836914,-0.34721487760543823,-0.7490893006324768,0.24874094128608704,-0.6332230567932129,-0.7184352278709412,0.3368734121322632,-1.4576245546340942,0.7457660436630249,0.5353085994720459,1.6318880319595337,-0.7063995003700256,-0.29340434074401855,0.5281699299812317,0.8034813404083252,-0.14530561864376068,-0.5044593811035156,-1.0117515325546265,-0.6719119548797607,-0.4250846803188324,0.5089837908744812,0.8472533226013184,0.18686963617801666,-0.6200445294380188,-0.6759845018386841,-0.15902599692344666,0.1177537739276886,0.8260184526443481,-0.028638048097491264,-1.6024025678634644,-0.07256490737199783,-1.250936508178711,1.3040372133255005,-0.9652551412582397,-0.5266027450561523,0.022444361820816994,0.2801554203033447,-0.7353157997131348,0.5944724678993225,0.0540589764714241,0.93517005443573,1.1788828372955322,-0.9802525639533997,-0.29439976811408997,0.9601762890815735,0.5148486495018005,0.058542463928461075,0.9166789650917053,-1.5340371131896973,-2.0510735511779785,1.2196656465530396,1.4281749725341797,1.2049453258514404,-0.3221769630908966,-0.37026864290237427,-0.7645624876022339,-0.6146926283836365,-1.8920997381210327,0.16113798320293427,0.5483266115188599,-0.11997029930353165,-0.8923099637031555,-1.3289510011672974,0.7598917484283447,-0.08494209498167038,-0.0183408185839653,0.26351797580718994,-1.0070370435714722,1.060339093208313,-0.060125309973955154,0.39074572920799255,0.9042385220527649,-0.04920826852321625,-0.3195873200893402,0.4111427068710327,1.1694005727767944,-0.23496948182582855,-0.2854008674621582,-0.7852660417556763,0.11818217486143112,-0.861524760723114,-0.8803040981292725,-0.27983081340789795,-0.8544064164161682,0.14449100196361542,0.7908814549446106,0.4166486859321594,1.220872163772583,-0.7569998502731323,-1.5460771322250366,1.0515453815460205,0.02094374969601631,-0.4885423481464386,0.14583592116832733,-0.10046933591365814,-0.822947084903717,-0.09890846908092499,0.17731605470180511,-1.2087639570236206,1.772489309310913,0.4147266745567322,-1.3655552864074707,-0.48454833030700684,0.7109270691871643,-0.6359215974807739,0.014876846224069595,-0.1516851782798767,2.6860713958740234,0.8039949536323547,-0.32420000433921814,0.9357998967170715,0.21146178245544434,0.7377941608428955,-0.8608050346374512,-0.268937349319458,1.3122279644012451,0.9089416861534119,0.6893996596336365,-2.035698413848877,0.17528888583183289,-0.09324171394109726,-0.9123212695121765,0.18054021894931793,1.0371043682098389,-0.44613245129585266,0.05497478321194649,-1.0686752796173096,0.7915148735046387,-0.21271145343780518,1.2095929384231567,0.41133496165275574,0.6691900491714478,0.4071187376976013,-0.10834279656410217,1.213841438293457,0.46334975957870483,0.06138235703110695,-1.1534420251846313,-0.22813290357589722,1.2268606424331665,0.673396110534668,0.054682374000549316,0.01551155187189579,1.6905170679092407,0.748031497001648,-0.2521141469478607,0.007481442764401436,-1.0039013624191284,-0.5598348379135132,-0.8115451335906982,-1.9564553499221802,-1.1053144931793213,-0.033732976764440536,0.23063009977340698,-1.1518317461013794,-0.8182078003883362,0.18052531778812408,0.6915413737297058,0.7935783863067627,-0.7885453701019287,0.10480538010597229,-0.5425870418548584,-1.0675010681152344,0.5750529766082764,-0.9596163630485535,0.05751115083694458,0.15622395277023315,0.699706494808197,-0.2700035274028778,1.0735771656036377,0.7109057307243347,-1.306206226348877,0.8125589489936829,-0.47006815671920776,-0.548166811466217,1.7000411748886108,-2.204583168029785,-0.17477735877037048,0.23891949653625488,0.6617250442504883,-0.37878191471099854,-1.6752489805221558,-0.4749726951122284,1.6272457838058472,2.8590595722198486,0.04781612753868103,-0.17919112741947174,0.730085551738739,0.23172785341739655,-0.7030737996101379,-1.7401200532913208,-0.2174738645553589,0.6915291547775269,-0.2612556219100952,-1.4877876043319702,-0.699678897857666,-0.10650130361318588,-0.07795286178588867,0.5347793698310852,1.2878371477127075,-0.8375338912010193,0.00011527402239153162,1.0549379587173462,-1.578823208808899,-0.8636504411697388,1.1757783889770508,-1.200604796409607,-0.8825189471244812,0.5895304679870605,0.34940797090530396,0.349100261926651,-0.45651277899742126,0.0633087083697319,0.7140380144119263,0.7997118830680847,-0.8551236391067505,1.6813281774520874,0.38507628440856934,-0.2779633700847626,-0.18868829309940338,-0.07131098955869675,-0.027380170300602913,-0.3095772862434387,0.6670554876327515,0.8387053608894348,-0.33196333050727844,0.328396201133728,0.8696695566177368,0.7259818315505981,0.366057425737381,-1.4199796915054321,-0.5649295449256897,-0.7700155377388,0.8662318587303162,0.29836130142211914,-0.3713325262069702,-0.17487367987632751,-0.4247492253780365,0.693514883518219,1.594779133796692,-0.09067577868700027,0.41647061705589294,-0.3627915680408478,0.5735060572624207,0.6455249786376953,-1.352677345275879,1.004482626914978,-0.7213085889816284,-1.913862705230713,2.149899482727051,-0.24882186949253082,0.3908438980579376,-0.003963016904890537,0.04008471220731735,0.5049684047698975,-1.7223280668258667,-0.07411303371191025,0.5802594423294067,0.6858367919921875,0.04143940657377243,-0.21981674432754517,0.7392027974128723,0.9226043224334717,0.8925618529319763,-1.2038649320602417,0.37152525782585144,0.21068671345710754,-0.5576642155647278,-0.13666017353534698,0.22209516167640686,0.16424964368343353,-0.8194608092308044,-0.19875198602676392,1.382215142250061,0.8720418810844421,-0.47381702065467834,-0.23803190886974335,-1.492127537727356,-1.5408400297164917,-1.275153636932373,-0.39950326085090637,0.0742512047290802,0.2564968168735504,0.1207682266831398,-1.3710888624191284,0.9018271565437317,0.08987876772880554,-0.41788968443870544,-2.5205395221710205,-0.6344839334487915,-1.3521039485931396,-0.7936551570892334,-0.12420088052749634,0.24505189061164856,0.870517909526825,-0.33322852849960327,1.4799007177352905,0.8644495010375977,0.47503000497817993,0.7480237483978271,-0.3884718716144562,-0.42997464537620544,-1.2526614665985107,0.6572770476341248,0.8486893177032471,-1.4710866212844849,-0.26090431213378906,-0.16890756785869598,0.13258996605873108,2.3871548175811768,0.0011846788693219423,-0.1309962272644043,1.4190852642059326,-0.07740016281604767,-0.7761646509170532,-1.0886651277542114,0.20271560549736023,-0.7900912761688232,-0.5668718218803406,0.9466457962989807,0.2517908811569214,-0.7757974863052368,-0.34564176201820374,-1.481553554534912,1.7746460437774658,0.8093170523643494,-0.5773206353187561,0.7223929166793823,1.0268033742904663,1.1402735710144043,1.1399221420288086,-0.7958506345748901,0.2585923671722412,0.8622990846633911,0.40762925148010254,-1.4437057971954346,-1.3031914234161377,0.5493214726448059,1.2073818445205688,-0.6851046681404114,-0.4513256847858429,-0.476363867521286,0.2613687813282013,-0.7274592518806458,-0.38658779859542847,-0.36955058574676514,-0.22838933765888214,-1.0384470224380493,-0.12607209384441376,0.06513368338346481,0.13728168606758118,1.5822476148605347,2.1369986534118652,0.9162014722824097,1.8883532285690308,0.0828302875161171,-1.1693310737609863,0.21365633606910706,-0.5314345955848694,-0.8441818356513977,0.3253266215324402,-1.6713498830795288,-0.16350096464157104,1.5726734399795532,-0.5441284775733948,0.2168261557817459,0.4456852972507477,0.42421138286590576,0.9261482954025269,-0.033934034407138824,0.5069901347160339,-0.543944776058197,-0.4363258481025696,1.3034545183181763,0.49762222170829773,-1.1813709735870361,0.5968992114067078,-1.3727977275848389,0.47282925248146057,0.3042140603065491,-0.03793320432305336,-1.294155240058899,-0.22347651422023773,-0.1624566614627838,0.4265117347240448,0.5874277949333191,-0.7603306174278259,1.0820969343185425,0.48297688364982605,-1.3322056531906128,0.06106026470661163,-0.009916317649185658,0.576934278011322,-0.9033482670783997,-0.08697579801082611,-0.3980710506439209,0.9067130088806152,0.7447007894515991,-0.8938227295875549,-1.2242653369903564,-0.07970680296421051,0.18151836097240448,0.09410306811332703,-0.7439447641372681,-0.5172170996665955,1.0361698865890503,2.0026044845581055,0.3259478211402893,1.4213612079620361,0.3180570900440216,0.5927703380584717,0.8286102414131165,-0.8024390339851379,0.055641837418079376,-0.7952999472618103,0.026397686451673508,-0.4901885390281677,-0.5184929966926575,0.25777357816696167,-0.3816177248954773,0.9008486866950989,1.4101673364639282,0.39769038558006287,1.1896647214889526,0.9432461261749268,0.010031870566308498,-1.1854705810546875,-1.3674094676971436,1.425323247909546,-0.6756293773651123,-1.163201093673706,0.4698498845100403,-0.3063134551048279,-0.4352841079235077,0.2182217836380005,-1.3937345743179321,0.2713298797607422,-1.050984263420105,-0.9685430526733398,-0.7930952310562134,-1.005801796913147,-0.4469889998435974,-0.3932201564311981,0.014435858465731144,-0.09756989032030106,0.3854023218154907,1.0556871891021729,2.322249174118042,-0.20289351046085358,-1.4816079139709473,-1.2929493188858032,2.1749520301818848,0.7011440396308899,-1.0640418529510498,-0.17796742916107178,1.3596516847610474,-0.24266701936721802,0.04101283848285675,1.4260390996932983,0.5147599577903748,1.0234246253967285,-1.0527328252792358,-2.451256513595581,-1.1813621520996094]},"forgetHidden":{"rows":20,"columns":20,"weights":[-0.6237404942512512,-0.9815640449523926,0.6354435086250305,0.3405759334564209,-0.6657564640045166,-0.33619412779808044,-0.43466904759407043,-0.4402177929878235,-0.7895724773406982,1.762956142425537,-0.06343318521976471,-0.14182575047016144,-0.7308928370475769,0.5506207346916199,-0.35528096556663513,-0.8451220989227295,-0.30800533294677734,0.23260317742824554,0.21099215745925903,-0.75156569480896,1.3129504919052124,1.2677351236343384,3.1362195014953613,0.13226355612277985,0.34227102994918823,-0.05250013992190361,-0.15383976697921753,1.3210960626602173,0.04471144825220108,-0.9273423552513123,0.9869372844696045,-0.7100905776023865,0.1607721596956253,1.3428689241409302,0.10573838651180267,2.3497445583343506,2.0239040851593018,0.38978061079978943,-1.2154648303985596,0.4809832274913788,2.366621494293213,2.7516555786132812,2.220492124557495,-0.25787973403930664,1.546068549156189,0.45237040519714355,0.9727784991264343,-0.18534162640571594,2.4107253551483154,-1.500783085823059,1.141119122505188,2.321200132369995,1.0642951726913452,0.20205475389957428,1.6330994367599487,1.645172357559204,1.368971586227417,-1.0251784324645996,-0.8611727356910706,0.478767454624176,0.2421651929616928,0.22980181872844696,0.1960614174604416,-0.19432073831558228,0.5499199032783508,-0.03432817757129669,-0.020550258457660675,-0.5039566159248352,-0.3015219271183014,0.8912839293479919,-0.39207738637924194,0.1819051206111908,0.17335174977779388,0.5013492107391357,0.032920949161052704,0.23252896964550018,0.4270086884498596,-0.22810500860214233,-0.12641166150569916,1.0902155637741089,-0.709818422794342,1.0832229852676392,-0.4014422595500946,0.02359153889119625,0.6131185293197632,1.5314738750457764,-0.8803977966308594,0.26206886768341064,1.463154673576355,0.12175769358873367,1.2668191194534302,1.5492541790008545,0.8025986552238464,0.9015275835990906,1.3790628910064697,1.1171172857284546,0.03910045325756073,-0.8843274712562561,-1.244655966758728,-0.5167628526687622,-1.6240679025650024,-0.32513388991355896,1.2094969749450684,1.6806334257125854,-0.010457807220518589,-1.976356029510498,0.18868117034435272,-2.12658953666687,-0.1096673384308815,1.654011845588684,-2.399256944656372,0.9927067756652832,0.7923706769943237,-1.0130233764648438,0.07386905699968338,-0.9908265471458435,-0.26870715618133545,-1.1293836832046509,-1.5447217226028442,-0.6385358572006226,-0.21267320215702057,-1.0002362728118896,-0.2579553723335266,-2.18520188331604,-0.7540751099586487,0.9082523584365845,-1.4059514999389648,-0.5055710673332214,-0.7405350208282471,1.4329816102981567,0.11032462865114212,0.1372186541557312,-0.9410393238067627,0.5627694129943848,-0.5022367835044861,-0.829975962638855,-1.9890140295028687,0.40890824794769287,-0.09089230746030807,-0.024946851655840874,-0.46389690041542053,0.17965653538703918,0.06933236122131348,-0.08960289508104324,0.07759079337120056,0.6378374695777893,-0.26309993863105774,0.08288920670747757,-0.35310617089271545,0.6845180988311768,0.5939909815788269,0.4702968895435333,-1.123442530632019,1.5457525253295898,-1.0388495922088623,-0.1472465842962265,-0.38515347242355347,0.893764078617096,0.09752945601940155,0.33070966601371765,-0.7636954188346863,1.194802165031433,-1.1439464092254639,0.03391777351498604,1.03584885597229,-1.4118685722351074,-0.8749767541885376,0.2089119404554367,-0.21534714102745056,0.1464986652135849,0.6619741320610046,-0.3480988144874573,0.8637595772743225,0.3014962375164032,0.1646306961774826,-0.00630743894726038,1.2739343643188477,-0.5082374811172485,-0.48131439089775085,-0.06181808188557625,2.3974053859710693,3.4422061443328857,-0.2376156747341156,0.4089788794517517,-0.5373495221138,-0.08462630957365036,0.6073548197746277,-0.2644727826118469,0.08414009213447571,0.22434337437152863,-0.47609418630599976,-1.0917028188705444,-0.07057227939367294,1.3596241474151611,-0.26606449484825134,2.5322742462158203,0.45410680770874023,-1.117276906967163,-1.0421422719955444,2.4565043449401855,-0.5808791518211365,0.3131764829158783,0.1315794736146927,0.5416545271873474,0.5473337769508362,-0.30980566143989563,-0.9141373038291931,-0.25594663619995117,0.39170312881469727,0.36665579676628113,1.1464554071426392,0.2639386057853699,0.31219178438186646,1.3383268117904663,1.0028692483901978,0.03967597335577011,0.3909991681575775,-0.3328912556171417,-1.839342474937439,-0.49150896072387695,-1.0387588739395142,0.8350965976715088,-0.1761428266763687,-0.45483162999153137,0.5234387516975403,-0.19602541625499725,-0.44319626688957214,-0.5958006381988525,0.08936212956905365,-0.6184825301170349,-0.023520080372691154,0.22865687310695648,1.2670966386795044,0.030608322471380234,0.02591429091989994,0.761552631855011,0.18683476746082306,-0.5033234357833862,-0.7079811692237854,2.012042999267578,0.2692296802997589,-0.07378535717725754,-0.21054092049598694,0.26400521397590637,-0.27850446105003357,-1.8127676248550415,0.4303082823753357,-0.6985587477684021,-0.1043107658624649,-0.522153377532959,-0.0553269237279892,-0.3769913911819458,0.23970624804496765,-0.7677459716796875,0.17567168176174164,-0.009212002158164978,0.109135203063488,0.1216123178601265,0.5419573187828064,-0.2953896224498749,-1.0373966693878174,-1.3005223274230957,-0.29315948486328125,0.1431465595960617,0.18228110671043396,0.6868752241134644,-0.4618392884731293,0.6728384494781494,-0.2884896993637085,0.9276425242424011,-0.2033374160528183,-0.5826740264892578,-1.242619514465332,0.7917124032974243,-1.2421236038208008,-0.024186229333281517,-0.2165471315383911,1.037729024887085,-0.2869497239589691,0.7009077668190002,1.431826114654541,1.0630227327346802,0.14600302278995514,-0.8923394083976746,1.073228359222412,-0.25416895747184753,-0.4046047329902649,2.423685073852539,-0.20656871795654297,-0.7082865834236145,-0.2953982949256897,0.09194501489400864,0.7246960401535034,-1.61069655418396,0.46709123253822327,1.2802435159683228,0.20324040949344635,-0.6629124283790588,0.1563033014535904,-1.2362620830535889,-0.16853748261928558,-0.5380773544311523,2.626002311706543,-0.7355479001998901,-1.600757360458374,4.630776405334473,-0.43081164360046387,-3.2446160316467285,1.7565531730651855,1.502036452293396,1.1344833374023438,0.4485260844230652,-0.03979681804776192,-3.2826409339904785,0.23977039754390717,1.7263857126235962,2.474226236343384,-0.33008068799972534,-0.5512220859527588,0.16429099440574646,-0.4555891752243042,-0.6223852038383484,-2.112022876739502,-3.470224618911743,0.33197301626205444,-0.6096611618995667,0.18042691051959991,0.3291873633861542,0.23245440423488617,0.40560346841812134,-0.04679121822118759,1.4838542938232422,0.7344854474067688,0.7444120049476624,0.37890762090682983,-1.1755149364471436,0.23095302283763885,-0.5305474400520325,0.478706032037735,1.4061070680618286,0.9664730429649353,0.7606412768363953,0.6064916253089905,1.0707355737686157,0.9054239988327026,0.8982539772987366,-0.5458513498306274,-0.5163956880569458,0.37583422660827637,-0.3564314842224121,0.6726385354995728,1.5358390808105469,1.0735925436019897,-0.24769026041030884,1.1104680299758911,0.3981316089630127,0.6720001697540283,-0.5614166259765625,-0.043361879885196686,-0.7401376366615295,0.5481910109519958,0.01092489156872034,1.9938379526138306,1.126611351966858,1.5721771717071533,0.6710195541381836,-2.3282625675201416,-0.14251266419887543,0.5071889758110046,-1.1867835521697998,1.1145515441894531,2.809487819671631,-0.6429377794265747,0.3525700867176056,-0.35663753747940063,0.24549296498298645,1.37258780002594,0.23771758377552032,-1.2350965738296509,0.7679298520088196,-1.352708339691162,-0.3397199213504791,0.23180851340293884,0.1409517377614975,0.41492602229118347,0.13174714148044586,-1.3957912921905518,1.3085851669311523,1.231897234916687,0.1810443252325058,0.7924866080284119,0.3496759235858917,0.04883168265223503,2.3205316066741943,0.3976985812187195,-0.41712769865989685,0.18634048104286194,-0.9482405781745911,-2.825326681137085,-0.3528240919113159]},"forgetBias":{"rows":20,"columns":1,"weights":[0,0,0,0,0,0,0,0,0,0,0,0,0,0,0,0,0,0,0,0]},"outputMatrix":{"rows":20,"columns":37,"weights":[0.8087711930274963,-0.10094200819730759,-1.0158963203430176,0.037379033863544464,0.15991421043872833,0.24104352295398712,1.1484460830688477,-0.5917127728462219,0.37519383430480957,-1.641644835472107,-0.3678515553474426,0.1687382310628891,-0.6186283230781555,0.5705785155296326,-0.6150292754173279,1.1730891466140747,-1.0497400760650635,-1.211975336074829,-0.5615578889846802,-2.7873191833496094,0.8636746406555176,-1.4265114068984985,0.9143160581588745,-0.5994110107421875,-1.2968227863311768,-0.26104581356048584,0.7927370667457581,0.3726018965244293,1.0608853101730347,0.9793163537979126,0.8205983638763428,-1.0504311323165894,-1.4334943294525146,0.19475644826889038,-1.014320731163025,1.2452515363693237,-1.3278292417526245,-1.84772527217865,1.1784998178482056,1.7518311738967896,-0.5512059330940247,-0.9038830399513245,1.4799304008483887,0.37645867466926575,-0.5616312026977539,0.14387346804141998,0.746749758720398,0.07280261069536209,-2.003274917602539,-0.568013072013855,2.0697762966156006,1.391057014465332,-0.019103126600384712,1.083539366722107,1.0445842742919922,-0.237794429063797,0.2697012722492218,0.4416409134864807,-0.5189955234527588,-0.4220889210700989,0.8174453377723694,-0.5934907793998718,1.6396546363830566,-0.8848088383674622,-1.5476051568984985,0.6313034892082214,0.6132689118385315,-0.7723197340965271,0.33821412920951843,0.08442438393831253,-0.03515308350324631,-1.3410366773605347,0.5710434317588806,0.45858025550842285,-0.14320576190948486,0.8390211462974548,-0.26523667573928833,-1.1529991626739502,-0.3779584765434265,0.6746078729629517,1.089153528213501,-1.9078813791275024,-1.076894760131836,-0.2595457434654236,1.5357046127319336,-1.0702451467514038,0.368680477142334,1.5003066062927246,0.13633815944194794,0.11065273731946945,0.22682443261146545,0.1235564649105072,-0.5871945023536682,-2.002224922180176,0.8591781854629517,0.191317617893219,-0.7115094661712646,1.053456425666809,-1.0388952493667603,1.1355386972427368,0.22768989205360413,0.8268981575965881,-0.985603928565979,0.35022348165512085,-0.44562992453575134,-0.11521106958389282,-0.155193030834198,-0.6568928360939026,0.49967506527900696,1.8956090211868286,-0.9822108745574951,-0.6589154005050659,1.0139364004135132,1.7491710186004639,-0.9483591914176941,0.4655277729034424,0.25980672240257263,-0.9160212278366089,0.5748339891433716,-1.770426869392395,-0.011542028747498989,0.47592321038246155,-0.569644570350647,-0.13575880229473114,0.9435522556304932,0.6700621247291565,2.576176404953003,0.458511084318161,0.37418505549430847,0.01735956035554409,0.09833827614784241,1.4726824760437012,-0.16867002844810486,-1.5713460445404053,1.1490427255630493,-0.8678876757621765,0.6556522250175476,-0.5201572179794312,-0.2315273880958557,-1.7350925207138062,0.6553256511688232,0.14350926876068115,0.8206092715263367,-1.247846245765686,-0.672406017780304,0.4720644950866699,0.020461682230234146,-1.2826061248779297,-0.04522667080163956,2.0313668251037598,-0.40648502111434937,-0.9748575091362,1.9887580871582031,1.3504084348678589,-1.4949696063995361,1.031799077987671,-2.268247127532959,-0.688912570476532,1.2016255855560303,-0.4954434931278229,0.7713169455528259,-1.0858303308486938,-0.1821187436580658,0.02958255633711815,1.436543345451355,-0.49907827377319336,-2.121960401535034,0.9600794315338135,0.7037814259529114,1.2129911184310913,-1.0768013000488281,0.7126411199569702,-0.44166645407676697,0.41789910197257996,0.22522155940532684,1.02491295337677,-0.9470572471618652,0.47552648186683655,-2.0005180835723877,0.8814373016357422,1.4201701879501343,-2.302157163619995,-0.41240689158439636,-0.8260728716850281,-0.584410548210144,-0.6730203032493591,0.7555013298988342,1.0715935230255127,-0.45369404554367065,-0.8736710548400879,-0.18244703114032745,-0.5680904984474182,0.6432237029075623,-0.3944008946418762,-0.4615354835987091,0.3296428322792053,0.19270887970924377,0.07195264101028442,-0.7710505127906799,-0.5444357991218567,1.2722620964050293,-0.05230611935257912,-1.3084477186203003,-0.09280557930469513,0.6421616673469543,1.5711740255355835,-1.0672343969345093,-0.6087418794631958,0.43448248505592346,0.5778154730796814,-0.8949103355407715,0.41556400060653687,1.7710617780685425,0.03055134415626526,-0.8836694955825806,0.32349857687950134,0.35632026195526123,-0.4239324927330017,-0.05212149769067764,-0.7062624096870422,-1.5757849216461182,-2.659261703491211,-1.6929758787155151,0.210433229804039,2.244180202484131,0.10745523124933243,0.03844970464706421,-0.17306490242481232,0.16179977357387543,-0.14690271019935608,0.6054316163063049,-1.3047266006469727,-0.3643060326576233,-1.0450713634490967,-0.9535421133041382,-0.4915020763874054,0.6654472351074219,2.358201742172241,-1.2455655336380005,0.374112993478775,-0.02738487534224987,0.0018053188687190413,0.9464128017425537,-3.8098442554473877,0.20739229023456573,-0.6617249846458435,1.9797396659851074,0.8770334124565125,-0.6939387321472168,0.09132927656173706,1.2858363389968872,-0.9371950626373291,0.6053169369697571,-1.2639153003692627,-0.4012331962585449,1.3619885444641113,-2.299631118774414,-1.2716691493988037,-1.7728042602539062,0.5662357211112976,-0.8617578744888306,1.7617179155349731,-0.05963185057044029,0.2972167730331421,0.47473999857902527,0.7434343695640564,0.21267546713352203,0.4259239137172699,-0.4237625300884247,-0.3798038065433502,0.7759577631950378,0.09578736871480942,-0.6967253088951111,-0.8968591690063477,1.8516507148742676,-0.4390048682689667,-0.3842589259147644,0.7748755812644958,0.3161559998989105,0.8334365487098694,-1.8387000560760498,0.2923518419265747,0.6266912817955017,0.509438693523407,-0.4558839797973633,-1.738850474357605,0.09631901979446411,0.6433302760124207,-0.9357806444168091,1.4721543788909912,0.22090761363506317,0.14255693554878235,1.0614421367645264,0.43344375491142273,0.20832712948322296,-0.40822508931159973,0.46884235739707947,1.2552950382232666,-0.1981956958770752,-0.6493045091629028,0.26628172397613525,-0.5934461355209351,0.1310943067073822,0.1935105323791504,-0.5589190721511841,0.330873966217041,0.7916728258132935,0.26024240255355835,1.9382085800170898,0.08828897774219513,-0.5686089396476746,-0.6360557079315186,0.5943288803100586,-0.30714207887649536,-0.7147231698036194,0.30713164806365967,-0.013450376689434052,0.42791029810905457,-0.3526361584663391,-0.12337125092744827,0.328829288482666,-0.6719763278961182,0.28456515073776245,1.4218471050262451,-1.2778626680374146,-0.33459392189979553,-0.43965768814086914,0.4280145764350891,0.609505295753479,-1.0417674779891968,0.6711723208427429,0.2937382757663727,0.25618618726730347,-0.6284135580062866,-0.7868286967277527,0.17500315606594086,0.2790053188800812,0.25525563955307007,-1.0028597116470337,0.06251627951860428,-0.5008266568183899,0.3019082248210907,0.5720853209495544,-1.0047197341918945,-0.36514636874198914,0.15084561705589294,0.8966308236122131,0.8516412973403931,0.0027956312987953424,0.11999040842056274,0.8863720297813416,1.9584674835205078,-0.47952768206596375,-0.13908039033412933,1.7172472476959229,0.9409316182136536,-0.6189889311790466,-1.9463738203048706,0.5036920309066772,-0.4314797520637512,-1.163619875907898,0.9285715818405151,1.3511570692062378,0.4377248287200928,0.001567038823850453,-0.11816215515136719,0.9949160814285278,-2.125352621078491,1.1491320133209229,0.3135283291339874,0.2991642653942108,1.2259416580200195,1.1509501934051514,-0.6272772550582886,-0.4894008934497833,0.8026933670043945,0.4123949408531189,-0.264493465423584,-0.6782382726669312,0.6716980338096619,2.022512912750244,0.4363703429698944,1.7280495166778564,1.4772034883499146,-0.07265622913837433,0.6567323207855225,-0.11147619783878326,-0.653158962726593,-1.0594637393951416,1.0709632635116577,2.2294981479644775,-0.9338487982749939,-0.9982162714004517,2.7524983882904053,-0.339471697807312,-0.2784562110900879,1.5757606029510498,2.1079702377319336,-2.7626564502716064,-0.9689173102378845,-0.6392184495925903,-0.13374334573745728,0.002946130931377411,-1.3238357305526733,1.218363881111145,-0.14662207663059235,-2.306410312652588,1.0741552114486694,1.0206571817398071,-0.0462997741997242,-1.2963758707046509,0.08933299034833908,0.8088251948356628,0.42882323265075684,0.17308355867862701,-0.7622769474983215,-0.10991104692220688,0.22359363734722137,0.18362827599048615,-0.04454853758215904,1.0625990629196167,0.090205617249012,0.6090474724769592,1.5652186870574951,0.58447265625,-0.15153244137763977,0.9981718063354492,1.262830376625061,-0.07800371944904327,-1.3101890087127686,1.4099164009094238,0.3116384744644165,-0.6061098575592041,-0.1324205994606018,-0.5751957297325134,-0.9476141929626465,0.0722825825214386,0.42247700691223145,1.093401551246643,-0.0021808906458318233,-0.05678996816277504,0.7127572298049927,-0.21056005358695984,-0.7668097019195557,-1.5820614099502563,0.783531129360199,2.729975938796997,-0.12114843726158142,0.05445435270667076,-1.8222250938415527,0.7839868664741516,0.18714885413646698,0.1910373866558075,-1.3685930967330933,-0.008978280238807201,-0.22019577026367188,0.6488012075424194,-0.8260783553123474,0.8596218824386597,0.9151747822761536,0.09430812299251556,1.0835407972335815,0.7990886569023132,-1.3958479166030884,0.7376410365104675,-0.9059478044509888,-0.8241844177246094,-1.8473689556121826,1.380661129951477,0.05369327962398529,0.19671085476875305,-0.4089438021183014,1.1643669605255127,-1.621454119682312,0.24712081253528595,-0.7143868803977966,0.5372301340103149,0.9512643218040466,-1.8272086381912231,-0.267120361328125,-2.0828113555908203,-1.2028579711914062,2.4562697410583496,0.2531038224697113,-1.5957598686218262,1.2095451354980469,-1.8939063549041748,-0.5199231505393982,1.3685826063156128,-0.9458606243133545,-0.45827898383140564,-0.6699788570404053,-0.13195101916790009,0.033371925354003906,-1.8073681592941284,-0.24324317276477814,0.7773149013519287,-0.8083229064941406,0.40856942534446716,-0.20458263158798218,1.1654061079025269,2.1225743293762207,0.18121899664402008,-2.5940845012664795,-0.8846321105957031,1.0826337337493896,0.5519534945487976,-1.3777607679367065,-0.12998396158218384,-0.0993579551577568,0.11088847368955612,0.0956164225935936,0.23860299587249756,0.6864436864852905,-0.03767497465014458,0.9554262757301331,-1.9366798400878906,-2.3174543380737305,-0.6259735822677612,2.026646375656128,0.9554216265678406,-0.7028399705886841,0.8713634610176086,0.029856039211153984,0.05279728025197983,0.7058438062667847,-1.9895318746566772,-1.475231647491455,0.1901162564754486,-0.8967216610908508,-0.0032822927460074425,-1.692824363708496,-0.07136289775371552,1.4917881488800049,1.1864144802093506,0.49674633145332336,-0.1817827820777893,-0.4345768988132477,0.27071768045425415,0.2732701897621155,-0.8010244965553284,-0.518445611000061,-0.08163366466760635,-0.056106798350811005,0.06945222616195679,0.4063594937324524,0.3884250521659851,-0.5951718688011169,0.29142630100250244,1.606274962425232,0.7552603483200073,0.16176751255989075,-1.5099632740020752,-0.5384917259216309,-1.3069627285003662,-0.3295701742172241,-1.0633043050765991,0.7203400135040283,0.43476107716560364,-1.3826439380645752,-0.47741732001304626,1.189977765083313,-0.5783474445343018,0.679808497428894,-0.007655921392142773,-0.7970125675201416,0.23938387632369995,-1.3249393701553345,1.1274199485778809,1.5530261993408203,0.6227285265922546,0.0974140390753746,1.7951167821884155,1.567251205444336,0.6023433208465576,-0.5092967748641968,-0.1835988461971283,0.36996468901634216,0.03971371799707413,-0.6383531093597412,-0.6058027744293213,-1.2950689792633057,-1.441254734992981,-0.33205288648605347,-0.04025709629058838,1.7154549360275269,-0.2993495762348175,-1.3403445482254028,1.4591922760009766,0.18785914778709412,0.09320026636123657,0.3785252273082733,-0.44746652245521545,-0.6508821249008179,0.3986812233924866,0.29970112442970276,0.9294194579124451,0.3792228698730469,-1.9186056852340698,-0.11950091272592545,0.2766687870025635,2.541543960571289,-0.016736211255192757,0.7693154811859131,1.238655686378479,0.829582154750824,-0.9512054324150085,-1.5996894836425781,0.07012394070625305,-1.4170618057250977,-0.39676418900489807,0.22524163126945496,-1.570704698562622,0.02076566033065319,0.757916271686554,0.2753734886646271,-0.8235014081001282,-0.10517184436321259,-0.3101446032524109,0.30396774411201477,-0.8899439573287964,0.6727127432823181,-1.3352223634719849,-0.3220732510089874,0.3717136085033417,-1.0522105693817139,1.6934565305709839,0.0033972980454564095,3.05314302444458,-0.47215205430984497,1.1570781469345093,0.9130046367645264,-0.9826122522354126,-0.11352688819169998,0.3265248239040375,-0.4912686347961426,1.2523391246795654,-2.376021146774292,-0.31171128153800964,-0.17039717733860016,-0.21409188210964203,-1.0005327463150024,-1.472402572631836,0.23030170798301697,1.1557741165161133,0.5643364191055298,0.6327957510948181,-0.023607980459928513,0.5865333080291748,1.6433990001678467,0.5546221733093262,-1.6797165870666504,0.10813736915588379,0.1376541405916214,-0.08561137318611145,-0.7148436307907104,-0.8684394955635071,-1.0280698537826538,-0.3677904009819031,-0.2206561118364334,0.6135156750679016,-0.32062992453575134,-0.3821277618408203,-0.5685716271400452,-0.8638647198677063,-1.2619174718856812,-0.8708122968673706,1.2672175168991089,1.4829655885696411,-0.6791998744010925,0.9909224510192871,0.05912725254893303,-0.28770172595977783,0.5192519426345825,-1.73863685131073,-0.2711384892463684,0.3000025749206543,0.1674843728542328,0.19853514432907104,-1.0641932487487793,0.022869039326906204,2.0251288414001465,0.7212005853652954,0.13089881837368011,-0.32317712903022766,0.6975657343864441,0.29389992356300354,-0.09633281081914902,-0.4696497619152069,0.0014050995232537389,0.36815905570983887,-0.20525629818439484,-0.3565053641796112,0.03475949168205261,-0.14748090505599976,-0.010740160942077637,-0.12135199457406998,0.9654123783111572,-0.10652338713407516,0.05765987187623978,0.12019631266593933,-0.7837587594985962,-0.9172564744949341,-1.4394099712371826,0.08951102942228317,-0.7304440140724182,0.47018516063690186,0.7046989798545837,-1.056475043296814,-1.0667668581008911,0.12771788239479065,1.6324687004089355,-0.1434938758611679,-1.3388569355010986,-0.26575368642807007,-0.7794627547264099,-0.3263016641139984,0.8028422594070435,0.1834472119808197,-1.4227416515350342,1.054115653038025,0.12820932269096375,-0.2538084387779236,-0.3358844220638275,-0.5068845748901367,0.4943932890892029,-1.5153871774673462,-0.3543555736541748,0.9853912591934204,-0.5434587597846985,-1.0421768426895142,1.2045339345932007,1.8179633617401123,0.7339036464691162,-0.7471153140068054,-0.3306780457496643,0.4629278779029846,-1.6180591583251953,-0.6128996014595032,0.7061267495155334]},"outputHidden":{"rows":20,"columns":20,"weights":[-1.0553410053253174,-1.937648892402649,0.31774213910102844,1.3755874633789062,-0.6589229106903076,-2.3448238372802734,-0.9826483726501465,0.8129885196685791,-1.3953264951705933,1.9923462867736816,-0.03761006519198418,0.7512350678443909,-0.4879937469959259,-0.5776541829109192,-0.7332776188850403,-1.3833423852920532,-0.560420036315918,0.43388140201568604,-0.1383337676525116,-0.1582358181476593,0.7732953429222107,0.1662948578596115,0.5810889005661011,1.096142053604126,-0.05607394501566887,-1.2005430459976196,0.5509295463562012,0.47416141629219055,0.05072890222072601,-1.6547435522079468,1.5535494089126587,0.8322917222976685,0.8506255745887756,-0.6102566719055176,1.1542565822601318,1.022691249847412,0.7270654439926147,-0.7691740393638611,0.4411965310573578,-0.1591794639825821,0.5030600428581238,2.1056745052337646,1.7732579708099365,0.5000438690185547,2.4711925983428955,-0.7517547011375427,-0.042261265218257904,0.27395132184028625,2.2800133228302,-0.2503802180290222,0.7388258576393127,0.6680790781974792,0.6913224458694458,1.5912914276123047,1.1184979677200317,1.1736254692077637,1.046776533126831,-1.2087501287460327,-0.4972589612007141,0.40482860803604126,1.7021619081497192,1.1128679513931274,0.30987051129341125,-0.008203297853469849,0.08370519429445267,1.9950664043426514,-0.06120093911886215,-0.7652857303619385,1.1156238317489624,1.2899147272109985,1.3832149505615234,-0.06112799420952797,0.05016855150461197,1.8517119884490967,0.3325698971748352,0.9514793157577515,0.8137627243995667,-1.1794084310531616,-0.7900606393814087,1.052877426147461,-0.7795228958129883,1.5244481563568115,1.1056822538375854,2.0466368198394775,2.2066667079925537,0.8073172569274902,0.6712697744369507,1.2778007984161377,0.09561876952648163,-0.22821682691574097,1.6713497638702393,2.391129970550537,0.9349359273910522,0.4596371352672577,1.7082245349884033,1.819414734840393,0.09330061823129654,-1.9032400846481323,-0.5622792840003967,-0.9900158643722534,-1.821478247642517,-1.0273905992507935,0.5893061757087708,-0.42388197779655457,-1.0579712390899658,-1.3954572677612305,-0.3445761501789093,-1.1797367334365845,-0.6266533136367798,2.6530776023864746,0.5021206140518188,-0.2515642046928406,-0.29261136054992676,-1.0730302333831787,-0.3339214324951172,-0.7123371958732605,-1.442164421081543,0.02911980450153351,1.1307477951049805,-1.269073486328125,2.2084083557128906,0.6264745593070984,-2.1395623683929443,-0.6944042444229126,-0.4616698622703552,-0.28309813141822815,1.6857367753982544,-0.5706320405006409,0.3872261643409729,-0.7877283096313477,-0.9125217199325562,0.40786460041999817,-0.17043735086917877,-0.8420529365539551,-0.5672630667686462,0.07220391929149628,0.4343900680541992,0.38706326484680176,0.11345518380403519,0.7672725915908813,0.5551502704620361,-2.524099588394165,0.2857297360897064,0.15273909270763397,-1.721520185470581,-0.3083890378475189,-2.815673828125,1.087714672088623,-0.24676182866096497,-0.5860288143157959,-2.0333900451660156,-0.49325013160705566,-2.7634241580963135,0.7794188261032104,-2.919677972793579,-0.6134486794471741,-0.21048478782176971,2.4081883430480957,-1.5534319877624512,1.6241728067398071,-2.4465765953063965,-0.5621626973152161,-0.43365901708602905,-0.3701995015144348,1.689713954925537,4.669623374938965,1.5586216449737549,-2.120656967163086,0.5228025317192078,2.2647197246551514,0.9815142750740051,2.4676084518432617,2.0429975986480713,-3.700330972671509,1.7114804983139038,-3.815106153488159,1.3387196063995361,-1.663763165473938,-1.7383720874786377,-0.3719526529312134,0.3668946921825409,1.062973976135254,0.11667067557573318,1.2065874338150024,-0.09040064364671707,-0.03687421232461929,-0.8158292174339294,0.21141919493675232,0.7125633358955383,0.029195941984653473,1.0947282314300537,1.8434343338012695,1.004663109779358,0.690204381942749,1.1099529266357422,0.15273438394069672,0.9904816746711731,-1.1585451364517212,-2.0405728816986084,0.798273503780365,0.47980356216430664,-0.40324366092681885,-3.289141893386841,-0.5274193286895752,-0.15412597358226776,-1.689935326576233,-0.15774425864219666,-1.2173223495483398,-0.1470617949962616,0.7286513447761536,-0.27574780583381653,-0.23619113862514496,0.7565190196037292,-0.4425640404224396,-0.12164410203695297,0.9999754428863525,-1.4853994846343994,0.2876926064491272,0.5026580095291138,-0.13784128427505493,0.16457298398017883,1.2684111595153809,3.6806297302246094,0.4841722249984741,1.9941047430038452,2.29225492477417,-2.509237766265869,1.579674482345581,3.2072157859802246,-0.8606916069984436,-1.2804685831069946,0.7402101159095764,0.8536507487297058,3.1503641605377197,0.8121206760406494,0.08144769072532654,2.9819459915161133,-1.5867681503295898,-0.5307959914207458,1.9130451679229736,-1.0488011837005615,-0.4776131212711334,-0.003714062971994281,-0.04254010319709778,0.7223371267318726,-1.3924657106399536,-1.3027150630950928,0.24833858013153076,-1.0828120708465576,0.9497911334037781,0.6808822751045227,1.3044235706329346,0.6339890956878662,-0.00696138059720397,0.1279420107603073,-0.7805561423301697,-0.5330268144607544,-0.7108154892921448,-0.6299861669540405,0.08631329238414764,0.5518717169761658,0.12305956333875656,-1.1748484373092651,-0.035868506878614426,-0.3225771486759186,1.5125066041946411,1.2901722192764282,0.17912708222866058,-0.3952242434024811,-0.4668392241001129,-0.4310304522514343,-1.102263331413269,-0.6656596660614014,-0.9231936931610107,-0.8562218546867371,0.8747733235359192,-0.45633620023727417,0.320864200592041,1.12129807472229,0.8763501644134521,-0.5644777417182922,0.4354209005832672,0.4404561221599579,1.1803737878799438,1.2475354671478271,0.8165811896324158,-1.0418964624404907,1.5603384971618652,-0.050071731209754944,0.654359757900238,1.734224557876587,1.9808951616287231,1.0013118982315063,-0.9952915906906128,0.6431863307952881,-0.365074098110199,0.715600311756134,-0.22148211300373077,-0.643500804901123,0.04157400503754616,0.04319588840007782,0.9986159801483154,2.9575676918029785,-1.5428268909454346,1.1308231353759766,0.026174673810601234,-1.4659066200256348,-1.5440324544906616,0.41749125719070435,-1.1726205348968506,1.381201982498169,1.202477216720581,0.4861794710159302,-0.8988054394721985,1.7088310718536377,2.430121421813965,2.725459575653076,-1.7524082660675049,1.6002317667007446,-3.9563493728637695,-0.3448740243911743,0.21875590085983276,1.094300389289856,-0.26084667444229126,-0.7985984683036804,0.21455451846122742,1.0360472202301025,-0.14932066202163696,1.2520438432693481,-0.5199972987174988,-0.20610937476158142,1.8265680074691772,2.3143539428710938,0.17948535084724426,1.563004732131958,-0.2616488039493561,0.5512757897377014,-1.7682665586471558,-0.13792693614959717,0.19444037973880768,-2.12286114692688,-0.10407454520463943,-0.0632321909070015,0.9181312322616577,1.558743953704834,0.9826852083206177,-1.835347294807434,2.049323320388794,-0.621315062046051,0.7982484698295593,3.2755815982818604,2.091982126235962,0.6392795443534851,-0.08739062398672104,0.3173258304595947,-1.2122886180877686,0.5047098398208618,-0.5635854005813599,-1.22788667678833,1.0050203800201416,1.5589361190795898,0.13751623034477234,0.7528221011161804,-0.9636302590370178,3.817363977432251,2.0076217651367188,-0.049310341477394104,0.663703441619873,0.5271919965744019,-1.2566050291061401,0.12166330218315125,-0.1210753321647644,-0.6724318861961365,-1.29249906539917,-0.9211907982826233,2.540076732635498,-0.9286230802536011,0.6238673329353333,-3.842325448989868,4.7695794105529785,-0.021238336339592934,-0.5066813826560974,-0.7938179969787598,-0.9414095878601074,-0.6870524883270264,-0.9047226309776306,0.32797813415527344,-0.559961199760437,-0.7065647840499878,-0.06275251507759094,1.2687125205993652,-1.5296846628189087,0.10110674053430557,-2.4063026905059814,-0.0549880675971508,-0.09938804060220718,-0.24260693788528442,-0.6109538674354553,1.7066516876220703,-2.263439893722534]},"outputBias":{"rows":20,"columns":1,"weights":[0.5335921049118042,-1.1771544218063354,-1.2878673076629639,-0.9553781747817993,-0.22478212416172028,-0.07893954962491989,-0.71311354637146,-1.3547580242156982,-0.46785950660705566,0.3967343866825104,-0.31314998865127563,-0.7294579744338989,-0.24389943480491638,-0.3927727937698364,-0.30090656876564026,0.6002655625343323,-3.110076904296875,-0.19663719832897186,-0.42567065358161926,0.7853040099143982]},"cellActivationMatrix":{"rows":20,"columns":37,"weights":[-0.5616414546966553,-0.09027605503797531,-0.7720915675163269,-0.17704322934150696,-1.5667846202850342,-1.0085538625717163,1.5740463733673096,-2.0391292572021484,0.424530029296875,-0.9977238774299622,-1.6923359632492065,-0.8011500835418701,-0.8745264410972595,1.5510419607162476,1.356933355331421,-0.6541256308555603,0.5085628628730774,1.0260660648345947,1.5831189155578613,-1.289015769958496,-0.1697109341621399,0.9902947545051575,0.9539672136306763,-0.5519117712974548,-0.8188387155532837,0.8167726993560791,-0.5974578857421875,-0.533660352230072,1.3399560451507568,1.0651758909225464,1.41391122341156,0.019470062106847763,-1.7518119812011719,0.5458072423934937,-1.0561059713363647,0.7295172214508057,0.2216467559337616,-0.7645398378372192,0.9312703013420105,0.4997591972351074,-0.375313937664032,-1.0123176574707031,-0.24626056849956512,0.5838084816932678,-0.22684355080127716,0.06174467131495476,-0.9441607594490051,-0.15977232158184052,-1.4826023578643799,-0.11629755795001984,1.0560553073883057,1.0802295207977295,0.8526284694671631,-0.46216514706611633,0.3709135055541992,-0.48880743980407715,-0.570347785949707,0.1428414285182953,-0.914971113204956,-0.44983842968940735,-0.35435765981674194,-0.09622251242399216,1.1040948629379272,0.23076829314231873,0.48578280210494995,-0.6292675137519836,0.03390195965766907,0.1981605887413025,-0.050417449325323105,-1.0095062255859375,-0.3241536021232605,-1.197919249534607,0.4406948387622833,